svm_type c_svc
kernel_type rbf
gamma 0.5
nr_class 2
total_sv 3824
rho 0.998785
label 1 2
nr_sv 1912 1912
SV
1 1:0.00023649686 2:0.00013851762 
1 1:0.00019549735 2:0.00012587936 
1 1:4.6829252e-05 2:3.8564244e-05 
1 1:0.00029862511 2:0.00011654931 
1 1:5.1752453e-05 2:4.7127839e-05 
1 1:0.00022395396 2:9.8435774e-05 
1 1:0.00021463637 2:9.9685261e-05 
1 1:0.00022666123 2:0.00011618138 
1 1:0.00018160332 2:0.00010435904 
1 1:0.00017443241 2:0.00010920022 
1 1:0.00055685842 2:0.0012229617 
1 1:0.00057884068 2:0.0010439278 
1 1:0.00047786212 2:0.0010179646 
1 1:0.00012447336 2:0.0002484663 
1 1:0.00077364017 2:0.00086936428 
1 1:0.000193871 2:7.7999208e-05 
1 1:4.0614629e-05 2:3.270779e-05 
1 1:0.00039446437 2:0.00082993743 
1 1:0.00066019393 2:0.0015336013 
1 1:9.4768453e-05 2:4.247233e-05 
1 1:0.00014023573 2:5.1279728e-05 
1 1:0.00017185591 2:6.224475e-05 
1 1:0.00016565725 2:6.2152819e-05 
1 1:2.2816149e-05 2:1.3513769e-05 
1 1:0.00031277893 2:8.7658121e-05 
1 1:0.00037068458 2:0.00010449903 
1 1:7.474006e-05 2:3.3408905e-05 
1 1:0.00014399448 2:4.2721358e-05 
1 1:0.00013568859 2:4.4764851e-05 
1 1:0.00012548562 2:4.3982815e-05 
1 1:0.00010885322 2:3.660538e-05 
1 1:6.749391e-05 2:2.4438723e-05 
1 1:2.5910398e-05 2:2.6029382e-05 
1 1:5.2607403e-05 2:2.2436304e-05 
1 1:0.00021092279 2:6.2142181e-05 
1 1:0.00037156087 2:0.00010000814 
1 1:6.8776791e-05 2:2.2085218e-05 
1 1:8.6817572e-05 2:2.7684645e-05 
1 1:0.00017668084 2:5.4738166e-05 
1 1:0.00036821152 2:9.8713428e-05 
1 1:0.00074090997 2:0.00092379103 
1 1:0.00052947687 2:0.0008143368 
1 1:0.0001168401 2:5.095758e-05 
1 1:0.00015153239 2:5.8342393e-05 
1 1:0.00010861196 2:5.2319297e-05 
1 1:0.00019906001 2:6.0158036e-05 
1 1:8.5546259e-05 2:3.142621e-05 
1 1:9.2997784e-05 2:3.3879698e-05 
1 1:0.00019409004 2:5.8136517e-05 
1 1:0.00021229801 2:6.1712026e-05 
1 1:0.00020190871 2:0.00010820874 
1 1:0.00028597651 2:0.0001257719 
1 1:0.00019125439 2:9.8087775e-05 
1 1:0.00014548503 2:9.6843408e-05 
1 1:0.00046003453 2:0.00052960336 
1 1:0.00012672148 2:4.5172295e-05 
1 1:0.00048242799 2:0.00024131433 
1 1:0.00020629074 2:5.9040415e-05 
1 1:0.00030185104 2:0.00012435611 
1 1:0.00047189987 2:0.00026091119 
1 1:0.00014004012 2:4.4065718e-05 
1 1:0.00041484493 2:0.00060497262 
1 1:0.00035573443 2:0.00050336218 
1 1:0.00043565739 2:0.00054288101 
1 1:0.0003172146 2:0.00050682208 
1 1:0.00085391573 2:0.0014005461 
1 1:0.00023492812 2:9.7102918e-05 
1 1:0.00016454448 2:7.3587948e-05 
1 1:0.00020038448 2:8.31629e-05 
1 1:0.00017246593 2:7.8467241e-05 
1 1:0.00085038732 2:0.0013863475 
1 1:0.00085920092 2:0.0013767421 
1 1:0.00017282682 2:5.4376216e-05 
1 1:6.917051e-05 2:2.7504999e-05 
1 1:0.0001528418 2:4.757681e-05 
1 1:0.00021889415 2:6.5805728e-05 
1 1:0.00022227295 2:7.1347845e-05 
1 1:0.00018671796 2:5.8951137e-05 
1 1:8.684887e-05 2:3.0438985e-05 
1 1:0.00027446408 2:7.5739018e-05 
1 1:0.00012223323 2:7.8075975e-05 
1 1:0.0001632432 2:4.8923259e-05 
1 1:0.00016869194 2:0.00010030279 
1 1:0.00025681025 2:7.6555817e-05 
1 1:0.00036911265 2:0.00038174186 
1 1:1.5966439e-05 2:1.5916732e-05 
1 1:0.00025176723 2:0.00027069195 
1 1:0.00033187834 2:0.00042640204 
1 1:0.00025230243 2:8.1323305e-05 
1 1:8.6693944e-05 2:3.3192759e-05 
1 1:0.00026403887 2:9.7027802e-05 
1 1:0.00034464269 2:0.00010861436 
1 1:0.00033755444 2:9.7551238e-05 
1 1:0.00037633762 2:0.00012952822 
1 1:0.00021913879 2:0.00041629254 
1 1:0.00025492686 2:0.00046326603 
1 1:0.00029040822 2:0.00042704449 
1 1:0.00048768832 2:0.00049176737 
1 1:0.00028377306 2:0.00043824382 
1 1:0.00032772622 2:9.2956579e-05 
1 1:0.00052085482 2:0.00029428543 
1 1:0.00017801547 2:5.8210942e-05 
1 1:0.00024000225 2:0.00018067888 
1 1:0.00027068505 2:0.0001900897 
1 1:0.00024775852 2:0.00018730727 
1 1:6.1558347e-05 2:1.8415788e-05 
1 1:0.00053191791 2:0.00013508633 
1 1:0.00046909745 2:0.00012213503 
1 1:1.7611142e-05 2:7.971846e-06 
1 1:0.00031619246 2:8.961753e-05 
1 1:0.000271841 2:7.4349779e-05 
1 1:0.0004951417 2:0.00012730101 
1 1:0.00017864404 2:4.7794298e-05 
1 1:0.00028905323 2:8.013552e-05 
1 1:0.00028672755 2:7.1706881e-05 
1 1:0.00013929605 2:4.2301596e-05 
1 1:0.00033412269 2:0.00023265734 
1 1:4.4619667e-05 2:1.4709801e-05 
1 1:0.00018951896 2:8.5406006e-05 
1 1:0.000259097 2:8.0673866e-05 
1 1:0.00012125105 2:3.5694552e-05 
1 1:0.00036060395 2:0.00068872873 
1 1:0.00013629523 2:0.00017769455 
1 1:0.0002532599 2:7.0950021e-05 
1 1:0.00025329682 2:8.1599861e-05 
1 1:0.00031527655 2:0.00010679867 
1 1:0.00022151361 2:6.851182e-05 
1 1:0.00018469682 2:5.3844742e-05 
1 1:0.00019448058 2:5.8093938e-05 
1 1:0.00018664434 2:5.4005159e-05 
1 1:0.00026578583 2:9.1981542e-05 
1 1:3.3324509e-15 2:8.0246674e-16 
1 1:3.3324509e-15 2:8.0246674e-16 
1 1:3.3324509e-15 2:8.0246674e-16 
1 1:3.3324509e-15 2:8.0246674e-16 
1 1:0.00096337424 2:0.00026515992 
1 1:0.0008906591 2:0.00028509707 
1 1:0.00090740576 2:0.00029503731 
1 1:0.0009117844 2:0.00029732742 
1 1:0.0009105998 2:0.00029902416 
1 1:0.00050897057 2:0.00038683289 
1 1:3.3324509e-15 2:8.0246674e-16 
1 1:3.3324509e-15 2:8.0246674e-16 
1 1:2.5308083e-05 2:2.206282e-05 
1 1:2.1038931e-05 2:2.0761203e-05 
1 1:2.1043167e-05 2:2.07611e-05 
1 1:2.1095491e-05 2:2.0763928e-05 
1 1:2.1329199e-05 2:2.0780132e-05 
1 1:3.3324509e-15 2:8.0246674e-16 
1 1:3.3324509e-15 2:8.0246674e-16 
1 1:0.00067486502 2:0.00020431391 
1 1:0.0023735093 2:0.0023482134 
1 1:0.0028302811 2:0.0023342054 
1 1:0.004368798 2:0.003025661 
1 1:0.0064463947 2:0.010345981 
1 1:0.011087427 2:0.01129866 
1 1:0.00099187642 2:0.00043022592 
1 1:0.00098948126 2:0.00042415273 
1 1:0.0091831647 2:0.0073252292 
1 1:0.00072238917 2:0.00021966624 
1 1:0.0012375221 2:0.0014083866 
1 1:0.00058873912 2:0.00014209898 
1 1:0.00082093783 2:0.00017879481 
1 1:2.1138678e-08 2:2.0890652e-08 
1 1:9.7822598e-08 2:1.0119769e-07 
1 1:8.9101665e-08 2:8.5572004e-08 
1 1:6.2813022e-08 2:6.2462573e-08 
1 1:3.7446448e-08 2:4.01209e-08 
1 1:4.9536226e-08 2:5.7170675e-08 
1 1:2.0990877e-08 2:2.0743642e-08 
1 1:2.1658861e-08 2:2.1495483e-08 
1 1:1.9537372e-08 2:2.1849997e-08 
1 1:4.900494e-08 2:2.023248e-08 
1 1:6.3770846e-08 2:2.0653487e-08 
1 1:1.0246281e-07 2:2.2456432e-08 
1 1:9.8860069e-08 2:2.3549186e-08 
1 1:9.7305644e-08 2:2.0594016e-08 
1 1:2.6519867e-07 2:5.5716341e-08 
1 1:8.3206937e-07 2:1.3121376e-07 
1 1:6.756114e-07 2:3.8792262e-07 
1 1:1.2891287e-06 2:8.7245522e-07 
1 1:8.2204184e-07 2:3.1107562e-07 
1 1:1.4895202e-06 2:3.8474391e-07 
1 1:1.5596399e-06 2:4.0195527e-07 
1 1:1.0543928e-06 2:4.6108011e-07 
1 1:9.7205289e-07 2:2.8024414e-07 
1 1:2.3983632e-07 2:1.0393832e-07 
1 1:5.3205477e-07 2:1.5287585e-07 
1 1:5.2803506e-07 2:1.3611284e-07 
1 1:1.001195e-06 2:2.2239512e-07 
1 1:9.4705363e-07 2:2.5196611e-07 
1 1:7.8966955e-08 2:2.9425906e-08 
1 1:6.2301324e-06 2:1.1254526e-05 
1 1:3.7127576e-05 2:3.4431197e-05 
1 1:3.7577374e-05 2:3.4352005e-05 
1 1:2.6969187e-05 2:2.5181418e-05 
1 1:1.7167003e-05 2:1.6828509e-05 
1 1:1.9344189e-05 2:1.9076669e-05 
1 1:2.2210995e-05 2:2.3534319e-05 
1 1:4.9447156e-07 2:1.2705846e-07 
1 1:7.2394669e-07 2:4.1949354e-07 
1 1:4.2255984e-07 2:1.2029716e-07 
1 1:6.7375534e-07 2:4.3817525e-07 
1 1:2.9092845e-07 2:9.929661e-08 
1 1:2.2176289e-07 2:6.7483158e-08 
1 1:1.2912252e-07 2:4.199445e-08 
1 1:2.8413717e-07 2:8.5877177e-08 
1 1:4.1702351e-07 2:1.3060319e-07 
1 1:7.2748945e-07 2:2.1797886e-07 
1 1:7.4942737e-07 2:1.9694318e-07 
1 1:5.7826129e-07 2:1.4803719e-07 
1 1:4.5153011e-07 2:1.1755467e-07 
1 1:2.9523513e-07 2:8.9195946e-08 
1 1:6.4964055e-08 2:2.782905e-08 
1 1:3.0337984e-05 2:2.8259382e-05 
1 1:3.0294298e-05 2:2.8560299e-05 
1 1:2.052898e-05 2:1.9979972e-05 
1 1:2.0243699e-05 2:1.9534814e-05 
1 1:4.2912336e-05 2:4.3070366e-05 
1 1:4.6767191e-05 2:4.5192583e-05 
1 1:2.4494943e-05 2:2.3161416e-05 
1 1:4.4687024e-05 2:4.2441509e-05 
1 1:9.7508072e-06 2:9.4139224e-06 
1 1:6.9984786e-06 2:6.9851356e-06 
1 1:4.2518754e-06 2:4.4927038e-06 
1 1:4.5132623e-06 2:4.1299033e-06 
1 1:5.1319412e-07 2:1.2578536e-07 
1 1:2.7347693e-07 2:1.0623764e-07 
1 1:4.35944e-07 2:1.0990909e-07 
1 1:1.1672958e-07 2:3.1556028e-08 
1 1:5.1653477e-08 2:2.4366775e-08 
1 1:3.0257324e-07 2:9.1802458e-08 
1 1:7.3315678e-08 2:3.5148308e-08 
1 1:4.8140973e-07 2:1.4230373e-07 
1 1:2.9000503e-07 2:8.7691081e-08 
1 1:4.2775521e-08 2:2.5353657e-08 
1 1:9.4425152e-08 2:3.6158965e-08 
1 1:2.1190018e-07 2:6.4496284e-08 
1 1:3.4988647e-07 2:9.3820447e-08 
1 1:5.7420707e-05 2:5.2532705e-05 
1 1:4.7236254e-05 2:4.6207655e-05 
1 1:5.0909082e-05 2:4.9483923e-05 
1 1:3.9816994e-05 2:4.1666646e-05 
1 1:4.5928655e-05 2:4.3544058e-05 
1 1:4.3896767e-07 2:1.2082961e-07 
1 1:1.9693625e-07 2:7.0905555e-08 
1 1:3.1159255e-07 2:1.0088503e-07 
1 1:1.8888988e-07 2:6.0891069e-08 
1 1:2.0150122e-07 2:6.0156368e-08 
1 1:3.6173655e-07 2:1.577839e-07 
1 1:1.2969009e-05 2:1.1100704e-05 
1 1:1.1414394e-05 2:1.073092e-05 
1 1:9.2244619e-06 2:8.9436031e-06 
1 1:1.1994109e-05 2:1.0707417e-05 
1 1:6.8686608e-06 2:5.810038e-06 
1 1:2.8595105e-07 2:1.26736e-07 
1 1:3.0045628e-07 2:8.1566492e-08 
1 1:4.8161984e-07 2:1.3591072e-07 
1 1:6.5272701e-07 2:1.8256413e-07 
1 1:8.2247985e-07 2:2.2666119e-07 
1 1:6.8489843e-07 2:1.8644279e-07 
1 1:4.7687053e-07 2:1.224878e-07 
1 1:5.0269868e-07 2:3.3933296e-07 
1 1:4.9904891e-07 2:3.3203925e-07 
1 1:4.4718422e-07 2:3.1079536e-07 
1 1:5.4069208e-07 2:2.7801449e-07 
1 1:4.81931e-07 2:2.4372176e-08 
1 1:2.6431638e-07 2:8.3611405e-08 
1 1:4.2079945e-07 2:2.3745383e-07 
1 1:4.2015783e-07 2:3.0637473e-07 
1 1:1.731808e-07 2:1.8709405e-07 
1 1:1.3143617e-07 2:5.5500852e-08 
1 1:1.161541e-07 2:3.225457e-08 
1 1:5.6646152e-05 2:4.6770476e-05 
1 1:5.0058954e-05 2:5.6152264e-05 
1 1:8.6460809e-05 2:9.2942149e-05 
1 1:0.00013816435 2:0.00013429662 
1 1:0.00016347329 2:0.00016775607 
1 1:0.00021162269 2:0.00022669977 
1 1:0.00017112065 2:0.00019463506 
1 1:0.00013787761 2:0.00016162474 
1 1:0.00012286808 2:0.00015506814 
1 1:0.00025980017 2:0.00027040779 
1 1:3.3324509e-15 2:8.0246674e-16 
1 1:3.3324509e-15 2:8.0246674e-16 
1 1:3.3324509e-15 2:8.0246674e-16 
1 1:3.3324509e-15 2:8.0246674e-16 
1 1:3.3324509e-15 2:8.0246674e-16 
1 1:3.3324509e-15 2:8.0246674e-16 
1 1:3.3324509e-15 2:8.0246674e-16 
1 1:3.3324509e-15 2:8.0246674e-16 
1 1:3.3324509e-15 2:8.0246674e-16 
1 1:3.3324509e-15 2:8.0246674e-16 
1 1:3.3324509e-15 2:8.0246674e-16 
1 1:3.3324509e-15 2:8.0246674e-16 
1 1:3.3324509e-15 2:8.0246674e-16 
1 1:3.3324509e-15 2:8.0246674e-16 
1 1:3.3324509e-15 2:8.0246674e-16 
1 1:3.3324509e-15 2:8.0246674e-16 
1 1:4.3877159e-15 2:1.002502e-15 
1 1:0.0015873365 2:0.0025002015 
1 1:0.0020755228 2:0.0027575132 
1 1:0.0020744484 2:0.0027572154 
1 1:0.0020757763 2:0.0027570633 
1 1:0.0020818767 2:0.0027558658 
1 1:0.0019003251 2:0.0025648955 
1 1:0.00030546651 2:0.0001764142 
1 1:3.3324509e-15 2:8.0246674e-16 
1 1:3.3324509e-15 2:8.0246674e-16 
1 1:3.3324509e-15 2:8.0246674e-16 
1 1:3.3324509e-15 2:8.0246674e-16 
1 1:3.3324509e-15 2:8.0246674e-16 
1 1:3.3324509e-15 2:8.0246674e-16 
1 1:3.3324509e-15 2:8.0246674e-16 
1 1:3.3324509e-15 2:8.0246674e-16 
1 1:3.3324509e-15 2:8.0246674e-16 
1 1:2.2430018e-05 2:1.691483e-05 
1 1:2.1031715e-05 2:2.0740214e-05 
1 1:2.1032171e-05 2:2.0757554e-05 
1 1:2.054179e-05 2:2.0738199e-05 
1 1:1.8166119e-05 2:1.9432023e-05 
1 1:3.3324509e-15 2:8.0246674e-16 
1 1:3.3324509e-15 2:8.0246674e-16 
1 1:3.3324509e-15 2:8.0246674e-16 
1 1:3.3324509e-15 2:8.0246674e-16 
1 1:3.3324509e-15 2:8.0246674e-16 
1 1:3.3324509e-15 2:8.0246674e-16 
1 1:3.3324509e-15 2:8.0246674e-16 
1 1:3.3324509e-15 2:8.0246674e-16 
1 1:0.00089920045 2:0.0030861402 
1 1:0.0008949447 2:0.0030850827 
1 1:0.00097035462 2:0.0033684445 
1 1:4.8760929e-07 2:3.4991563e-07 
1 1:1.0089281e-06 2:7.9819799e-07 
1 1:6.3657908e-07 2:4.24836e-07 
1 1:5.9238955e-07 2:4.3352435e-07 
1 1:0.00078607608 2:0.0054401194 
1 1:0.00072088069 2:0.0055842699 
1 1:0.00072120244 2:0.0055830273 
1 1:0.00072421615 2:0.0055851734 
1 1:3.2364126e-05 2:2.7291567e-05 
1 1:6.2859668e-07 2:1.5932446e-07 
1 1:1.2710121e-06 2:6.2865941e-07 
1 1:1.5746432e-06 2:8.7736375e-07 
1 1:1.1211667e-06 2:5.7909264e-07 
1 1:7.4549037e-07 2:3.8302988e-07 
1 1:7.9803652e-07 2:3.9884883e-07 
1 1:1.2388073e-07 2:3.3058051e-08 
1 1:1.271612e-07 2:3.5908677e-08 
1 1:5.4433551e-08 2:4.7357523e-08 
1 1:5.7219166e-08 2:3.516985e-08 
1 1:9.5893362e-08 2:4.2275972e-08 
1 1:9.0910419e-07 2:7.1399667e-07 
1 1:6.9983507e-07 2:5.646715e-07 
1 1:4.1334294e-07 2:3.037705e-07 
1 1:2.3179177e-07 2:1.0332511e-07 
1 1:1.6072512e-07 2:5.8554439e-08 
1 1:1.3339488e-07 2:4.8448137e-08 
1 1:2.1197312e-07 2:6.4303197e-08 
1 1:1.6376864e-07 2:5.5952706e-08 
1 1:1.8418754e-07 2:5.8308338e-08 
1 1:2.1328924e-07 2:6.5455763e-08 
1 1:1.9465502e-07 2:5.5886406e-08 
1 1:2.8092488e-07 2:1.5583284e-07 
1 1:1.6415885e-07 2:4.7243692e-08 
1 1:1.0722067e-06 2:9.0328783e-07 
1 1:9.9401784e-07 2:9.2552053e-07 
1 1:1.5481645e-07 2:4.5467492e-08 
1 1:0.00057696767 2:0.0015198937 
1 1:4.1807102e-05 2:3.819839e-05 
1 1:0.00047347347 2:0.0012798396 
1 1:2.8354586e-05 2:2.6421891e-05 
1 1:1.8078229e-05 2:1.7338122e-05 
1 1:1.7044691e-05 2:1.5923741e-05 
1 1:2.6019932e-07 2:9.1831236e-08 
1 1:2.8189544e-07 2:8.3624441e-08 
1 1:2.8719464e-07 2:6.1507129e-08 
1 1:1.8029753e-07 2:9.2267493e-08 
1 1:2.2658634e-07 2:6.7656839e-08 
1 1:1.928393e-07 2:5.5859122e-08 
1 1:2.5716676e-05 2:2.3988823e-05 
1 1:1.5501683e-05 2:1.707316e-05 
1 1:1.6021574e-07 2:8.3338683e-08 
1 1:3.02425e-07 2:2.58393e-07 
1 1:1.5775779e-07 2:1.172927e-07 
1 1:1.6366029e-07 2:1.3670814e-07 
1 1:2.0582982e-07 2:1.9964027e-07 
1 1:2.7419381e-08 2:2.4270722e-08 
1 1:7.5713092e-08 2:4.5816544e-08 
1 1:1.6284202e-07 2:6.8087081e-08 
1 1:1.4358149e-07 2:4.3689124e-08 
1 1:2.3035136e-05 2:2.2179248e-05 
1 1:5.3415349e-05 2:4.9301896e-05 
1 1:5.2488288e-05 2:4.8405076e-05 
1 1:5.2709601e-05 2:4.9038483e-05 
1 1:6.1043926e-05 2:5.7849927e-05 
1 1:3.2637651e-05 2:2.9601053e-05 
1 1:1.5996468e-05 2:1.4621446e-05 
1 1:2.948462e-07 2:7.7525021e-08 
1 1:4.6601287e-07 2:2.1015655e-07 
1 1:2.9684655e-07 2:8.0112624e-08 
1 1:4.2211052e-07 2:2.2423301e-07 
1 1:2.7302296e-07 2:6.7660262e-08 
1 1:3.9480313e-07 2:1.964482e-07 
1 1:2.7814342e-07 2:3.4471729e-08 
1 1:3.2331286e-07 2:1.1502072e-07 
1 1:2.7303834e-07 2:7.7051102e-08 
1 1:3.6805436e-07 2:2.4475982e-08 
1 1:7.4766019e-07 2:2.5396569e-07 
1 1:1.1695337e-06 2:5.4653706e-07 
1 1:7.8894269e-07 2:3.9057718e-07 
1 1:5.3122779e-07 2:2.1147981e-07 
1 1:2.4183473e-05 2:2.1026709e-05 
1 1:2.3665923e-05 2:2.1015048e-05 
1 1:2.3654529e-05 2:2.1057004e-05 
1 1:5.7687469e-07 2:1.4096005e-07 
1 1:3.1811436e-05 2:2.7432551e-05 
1 1:2.2301269e-05 2:1.9603218e-05 
1 1:1.4360177e-07 2:1.0285684e-07 
1 1:8.828822e-08 2:4.8568268e-08 
1 1:9.025049e-06 2:1.0216219e-05 
1 1:1.3440394e-05 2:1.2941456e-05 
1 1:1.2717414e-05 2:1.2389563e-05 
1 1:2.0452313e-05 2:1.9253598e-05 
1 1:2.0357317e-05 2:1.9185672e-05 
1 1:2.025382e-05 2:1.9018785e-05 
1 1:2.1136638e-05 2:1.8912743e-05 
1 1:1.1416404e-05 2:1.1819165e-05 
1 1:5.9134138e-08 2:2.410153e-08 
1 1:8.4124163e-08 2:4.3542273e-08 
1 1:7.8647618e-08 2:5.2647039e-08 
1 1:8.9138155e-08 2:5.4544539e-08 
1 1:1.8739201e-05 2:1.758713e-05 
1 1:2.069784e-05 2:1.9351915e-05 
1 1:0.0071604885 2:0.0080611062 
1 1:0.0019185483 2:0.005164113 
1 1:0.0078902388 2:0.010893478 
1 1:0.0086227722 2:0.011722524 
1 1:0.011259487 2:0.0097215477 
1 1:0.004660995 2:0.0055208986 
1 1:0.0049370784 2:0.0055265736 
1 1:0.0047348289 2:0.0056784961 
1 1:6.8123752e-05 2:6.2770012e-05 
1 1:6.7836569e-08 2:4.1585597e-08 
1 1:3.4695349e-08 2:2.3104381e-08 
1 1:6.9351334e-08 2:3.0590699e-08 
1 1:9.4199138e-08 2:3.8619702e-08 
1 1:1.2750462e-07 2:4.9571577e-08 
1 1:5.3808775e-08 2:2.9168916e-08 
1 1:2.0467941e-08 2:1.7124466e-08 
1 1:2.0154912e-08 2:1.7194281e-08 
1 1:2.938883e-08 2:1.9296566e-08 
1 1:5.713814e-08 2:2.7244856e-08 
1 1:8.292549e-08 2:3.1962243e-08 
1 1:9.3590272e-08 2:3.653427e-08 
1 1:1.0431792e-07 2:4.3409037e-08 
1 1:9.6054729e-08 2:3.4627406e-08 
1 1:2.5761526e-07 2:7.557911e-08 
1 1:2.3970198e-07 2:7.0284168e-08 
1 1:3.5643312e-07 2:2.4044691e-07 
1 1:2.3502139e-07 2:3.6927812e-08 
1 1:2.6621055e-07 2:3.0186333e-08 
1 1:2.3876629e-07 2:5.1491551e-08 
1 1:3.1491879e-07 2:1.1964203e-07 
1 1:3.7024773e-07 2:1.7793581e-07 
1 1:4.4441287e-07 2:2.3560541e-07 
1 1:5.8128185e-07 2:3.3435042e-07 
1 1:3.1283106e-07 2:7.7280188e-08 
1 1:1.2955199e-07 2:4.0386623e-08 
1 1:3.8240952e-07 2:3.9888779e-07 
1 1:1.1795318e-07 2:3.824684e-08 
1 1:3.4362054e-07 2:2.9264627e-07 
1 1:2.5017915e-07 2:1.6173802e-07 
1 1:4.0993959e-07 2:1.1162147e-07 
1 1:4.0402515e-07 2:1.0123091e-07 
1 1:4.1157749e-07 2:1.0833479e-07 
1 1:4.4822882e-07 2:1.8325337e-07 
1 1:7.5555163e-07 2:5.2907762e-07 
1 1:2.2704049e-05 2:2.2344697e-05 
1 1:2.2674439e-05 2:2.234859e-05 
1 1:2.2668675e-05 2:2.2328621e-05 
1 1:2.3109969e-05 2:2.2751062e-05 
1 1:2.462871e-05 2:2.4022425e-05 
1 1:2.468246e-05 2:3.2027455e-05 
1 1:8.1457662e-08 2:3.0997967e-08 
1 1:7.7385789e-08 2:3.3066492e-08 
1 1:8.7286657e-08 2:3.4392453e-08 
1 1:9.4117522e-08 2:4.0308932e-08 
1 1:1.0337672e-07 2:4.2350382e-08 
1 1:1.0856622e-07 2:4.7789955e-08 
1 1:1.2328842e-07 2:4.4528614e-08 
1 1:1.0851279e-07 2:4.247149e-08 
1 1:9.6883233e-08 2:3.4029188e-08 
1 1:7.6876039e-08 2:3.2590167e-08 
1 1:5.6983626e-08 2:2.9371613e-08 
1 1:3.8829685e-08 2:2.1254553e-08 
1 1:2.6429855e-08 2:1.80729e-08 
1 1:3.1415607e-08 2:1.8309213e-08 
1 1:7.0492938e-08 2:2.7099066e-08 
1 1:8.1067e-08 2:3.2380272e-08 
1 1:1.2147147e-07 2:3.9684311e-08 
1 1:9.8206486e-08 2:3.9069106e-08 
1 1:4.2884396e-08 2:2.2540638e-08 
1 1:3.6194835e-08 2:1.7155141e-08 
1 1:9.4008568e-08 2:3.5418147e-08 
1 1:8.2870587e-08 2:3.1887362e-08 
1 1:7.2775876e-08 2:2.7072685e-08 
1 1:4.5647551e-08 2:2.7162402e-08 
1 1:5.3849347e-08 2:2.5497879e-08 
1 1:4.6500675e-08 2:2.3639669e-08 
1 1:1.4476158e-07 2:7.8372996e-08 
1 1:6.478313e-08 2:2.9508862e-08 
1 1:5.7788547e-08 2:2.8276184e-08 
1 1:5.9730032e-08 2:2.5356236e-08 
1 1:7.5421125e-08 2:3.0236903e-08 
1 1:6.3998127e-08 2:2.9191359e-08 
1 1:7.5973537e-08 2:4.5754984e-08 
1 1:7.3468818e-08 2:2.8955852e-08 
1 1:8.0433535e-08 2:4.5178367e-08 
1 1:7.4066632e-08 2:3.2079931e-08 
1 1:1.062802e-07 2:3.4368042e-08 
1 1:1.4498669e-05 2:1.4125718e-05 
1 1:1.4164596e-05 2:1.398732e-05 
1 1:2.2729986e-05 2:2.1571523e-05 
1 1:3.1268748e-05 2:2.9131833e-05 
1 1:3.1046032e-05 2:2.9459449e-05 
1 1:2.8388885e-05 2:3.034701e-05 
1 1:7.3788616e-08 2:3.3248617e-08 
1 1:8.0298215e-08 2:3.0820941e-08 
1 1:7.5291713e-08 2:3.3046774e-08 
1 1:7.6170193e-08 2:2.4757937e-08 
1 1:8.1362106e-08 2:3.0247268e-08 
1 1:3.0861799e-05 2:2.7122143e-05 
1 1:3.0345792e-05 2:2.7501928e-05 
1 1:3.0087936e-05 2:2.7464021e-05 
1 1:1.3611373e-05 2:1.3229238e-05 
1 1:1.27441e-05 2:1.4931755e-05 
1 1:9.79178e-08 2:3.1901526e-08 
1 1:9.1107029e-08 2:3.8946638e-08 
1 1:9.5717236e-08 2:3.7964123e-08 
1 1:1.1620937e-07 2:3.5706966e-08 
1 1:9.6235512e-08 2:3.4152006e-08 
1 1:1.0892904e-07 2:3.0405944e-08 
1 1:8.8835596e-08 2:2.9390064e-08 
1 1:1.1475378e-07 2:3.543885e-08 
1 1:1.6263922e-07 2:4.269906e-08 
1 1:1.1483394e-07 2:2.8951623e-08 
1 1:1.2525383e-07 2:3.9853667e-08 
1 1:2.811464e-07 2:1.2862471e-07 
1 1:5.6092854e-08 2:3.8004699e-08 
1 1:2.839264e-08 2:1.779487e-08 
1 1:2.7414244e-08 2:1.6409717e-08 
1 1:2.6659859e-08 2:1.7874029e-08 
1 1:3.5637352e-08 2:2.0415795e-08 
1 1:5.1567199e-08 2:3.1515779e-08 
1 1:9.0268904e-08 2:3.1747092e-08 
1 1:2.5139412e-08 2:1.5658269e-08 
1 1:1.9401853e-08 2:1.0952786e-08 
1 1:2.7852547e-08 2:1.3503958e-08 
1 1:3.0337769e-08 2:1.48882e-08 
1 1:4.5943276e-08 2:1.9298837e-08 
1 1:7.2339639e-08 2:2.8770988e-08 
1 1:7.8458013e-08 2:2.9224526e-08 
1 1:1.9887589e-05 2:1.5905886e-05 
1 1:3.0524432e-05 2:3.0210278e-05 
1 1:3.8708182e-05 2:3.871982e-05 
1 1:3.1388309e-05 2:3.3764602e-05 
1 1:3.9218108e-05 2:4.0502343e-05 
1 1:3.9222493e-05 2:4.0631008e-05 
1 1:1.9443461e-05 2:1.7444513e-05 
1 1:6.1503707e-08 2:2.2141664e-08 
1 1:4.6253503e-08 2:1.879877e-08 
1 1:4.4903585e-08 2:2.0315914e-08 
1 1:4.4310258e-08 2:1.6733011e-08 
1 1:5.2735581e-08 2:2.2620814e-08 
1 1:7.7500585e-08 2:4.6237741e-08 
1 1:9.7996301e-08 2:5.7881804e-08 
1 1:5.923124e-08 2:2.5172683e-08 
1 1:6.2760491e-08 2:2.4622586e-08 
1 1:6.3035989e-08 2:2.5441481e-08 
1 1:6.6868923e-08 2:2.2056865e-08 
1 1:3.9346592e-07 2:9.8719333e-08 
1 1:3.0178124e-07 2:9.2638146e-08 
1 1:0.0010198788 2:0.0029103985 
1 1:0.00093425033 2:0.0025844213 
1 1:0.0010498492 2:0.0038674422 
1 1:0.0011933244 2:0.0043960549 
1 1:0.001263012 2:0.0046250544 
1 1:5.5887916e-08 2:4.4719821e-08 
1 1:1.340092e-08 2:1.4384553e-08 
1 1:2.5558821e-08 2:1.6023126e-08 
1 1:8.6096541e-07 2:7.0014978e-07 
1 1:1.2714937e-06 2:9.702476e-07 
1 1:9.4128311e-07 2:4.13012e-07 
1 1:8.0879702e-07 2:1.3010785e-07 
1 1:1.5408235e-07 2:6.4833118e-08 
1 1:1.0104323e-07 2:2.1761434e-08 
1 1:1.2553534e-07 2:3.120598e-08 
1 1:1.3639865e-07 2:2.9656231e-08 
1 1:1.8154019e-08 2:1.4701902e-08 
1 1:3.7219781e-08 2:3.633336e-08 
1 1:8.1749106e-08 2:7.859063e-08 
1 1:4.0642121e-08 2:1.76279e-08 
1 1:9.4943683e-08 2:7.2448368e-08 
1 1:2.8674429e-07 2:4.4180406e-08 
1 1:1.9249639e-06 2:2.1877324e-07 
1 1:2.0687303e-06 2:2.1732868e-07 
1 1:2.3345284e-06 2:2.3723411e-07 
1 1:0.015350594 2:0.014734074 
1 1:0.013813739 2:0.014363082 
1 1:0.013811242 2:0.014363382 
1 1:0.014359338 2:0.015944804 
1 1:0.014340538 2:0.015971791 
1 1:0.0019767533 2:0.0046490112 
1 1:0.00012201303 2:0.0001062143 
1 1:6.7899725e-05 2:5.972408e-05 
1 1:2.5029283e-05 2:2.2946968e-05 
1 1:3.3882435e-07 2:7.7285233e-08 
1 1:3.0429857e-05 2:3.6344098e-05 
1 1:2.6332431e-05 2:2.5463315e-05 
1 1:2.6245488e-05 2:2.5368993e-05 
1 1:2.5859871e-05 2:2.4975833e-05 
1 1:2.2535937e-05 2:2.2565031e-05 
1 1:4.5083258e-09 2:1.1751707e-08 
1 1:4.9295581e-09 2:1.3121013e-08 
1 1:6.8160078e-09 2:1.2873558e-08 
1 1:5.4133745e-09 2:1.3396546e-08 
1 1:7.4253566e-09 2:1.5004954e-08 
1 1:2.973669e-05 2:2.6378938e-05 
1 1:0.00052609015 2:0.0014240248 
1 1:0.00054647962 2:0.0014773394 
1 1:0.00060878619 2:0.001644599 
1 1:0.00060914729 2:0.0016446316 
1 1:0.00060938715 2:0.0016452439 
1 1:0.00066285579 2:0.0018017327 
1 1:0.00044787689 2:0.0016376327 
1 1:0.00042654645 2:0.001559741 
1 1:0.00038295567 2:0.0014033082 
1 1:0.0004947748 2:0.0013802682 
1 1:0.00038049745 2:0.0013224983 
1 1:3.8744103e-06 2:1.5618281e-06 
1 1:1.1851653e-06 2:4.7906271e-07 
1 1:1.1857152e-06 2:4.9894449e-07 
1 1:1.1562172e-06 2:4.7575029e-07 
1 1:8.7993019e-08 2:2.6170066e-08 
1 1:8.2633937e-07 2:1.1291883e-07 
1 1:3.3463705e-06 2:6.4265288e-07 
1 1:2.8873868e-06 2:6.1595514e-07 
1 1:2.8111818e-06 2:5.9982271e-07 
1 1:2.8000044e-06 2:5.9858556e-07 
1 1:1.5586481e-07 2:7.0664003e-08 
1 1:2.4543544e-08 2:1.5805451e-08 
1 1:3.4711475e-08 2:1.5694306e-08 
1 1:3.5432559e-08 2:1.7812729e-08 
1 1:3.2540485e-08 2:1.6194088e-08 
1 1:3.9622378e-08 2:1.6904759e-08 
1 1:3.5265629e-08 2:1.8387684e-08 
1 1:2.0582885e-08 2:1.5862974e-08 
1 1:1.9257864e-08 2:1.6768509e-08 
1 1:2.3140014e-08 2:1.7383073e-08 
1 1:2.2201605e-08 2:1.6647684e-08 
1 1:2.4821285e-08 2:1.6362564e-08 
1 1:2.4703001e-08 2:1.550479e-08 
1 1:2.284834e-08 2:1.3723489e-08 
1 1:1.9942503e-08 2:1.2379316e-08 
1 1:1.274864e-08 2:1.1583324e-08 
1 1:1.4573731e-08 2:1.1957629e-08 
1 1:7.4097543e-08 2:2.5989844e-08 
1 1:5.4503054e-08 2:2.1539776e-08 
1 1:2.8507145e-08 2:1.9107564e-08 
1 1:1.7785486e-08 2:1.6414723e-08 
1 1:1.4748789e-08 2:1.5744052e-08 
1 1:1.7028439e-08 2:1.6373508e-08 
1 1:1.5872833e-08 2:1.5383939e-08 
1 1:1.6992777e-08 2:1.5837439e-08 
1 1:3.3992673e-08 2:2.714382e-08 
1 1:3.7318246e-08 2:2.8867847e-08 
1 1:3.5579916e-08 2:2.8525101e-08 
1 1:2.3292453e-08 2:2.6804609e-08 
1 1:9.08061e-09 2:2.4618297e-08 
1 1:9.2327725e-09 2:2.6211762e-08 
1 1:9.0134927e-09 2:2.4631231e-08 
1 1:7.0845064e-09 2:2.1701343e-08 
1 1:1.6428415e-05 2:1.6216352e-05 
1 1:1.6429658e-05 2:1.6275604e-05 
1 1:1.6433241e-05 2:1.6286059e-05 
1 1:1.6450398e-05 2:1.6319719e-05 
1 1:1.6952932e-05 2:1.7174276e-05 
1 1:1.2964321e-05 2:1.4045829e-05 
1 1:5.2842337e-08 2:3.1667289e-08 
1 1:5.4935481e-08 2:3.6783517e-08 
1 1:9.7394129e-08 2:2.8193462e-08 
1 1:2.1997557e-05 2:1.7488955e-05 
1 1:9.2255819e-05 2:8.6782668e-05 
1 1:9.4982352e-05 2:8.904566e-05 
1 1:9.438776e-05 2:9.1133621e-05 
1 1:9.4504704e-05 2:9.1168418e-05 
1 1:9.5113715e-05 2:9.0922738e-05 
1 1:3.4922465e-05 2:3.4914631e-05 
1 1:9.0359919e-09 2:1.1238131e-08 
1 1:9.2412319e-09 2:1.0674501e-08 
1 1:9.6638731e-09 2:1.1350174e-08 
1 1:9.8923207e-09 2:1.0676853e-08 
1 1:4.7104471e-08 2:1.9167617e-08 
1 1:5.432511e-08 2:2.1186856e-08 
1 1:6.1236923e-08 2:3.9298761e-08 
1 1:4.8099535e-08 2:3.3511457e-08 
1 1:4.9817385e-08 2:3.6523293e-08 
1 1:5.7254829e-08 2:3.2655264e-08 
1 1:4.8496878e-08 2:2.2911742e-08 
1 1:1.7912198e-08 2:1.1628956e-08 
1 1:1.3859209e-08 2:1.0620061e-08 
1 1:7.8401527e-09 2:1.1361856e-08 
1 1:6.8868244e-09 2:1.1950934e-08 
1 1:5.5877379e-09 2:1.2536141e-08 
1 1:6.0361232e-09 2:1.103121e-08 
1 1:5.9558512e-09 2:1.0694944e-08 
1 1:6.741266e-09 2:8.8922973e-09 
1 1:5.4775565e-09 2:8.9441069e-09 
1 1:3.6379773e-08 2:1.5095278e-08 
1 1:3.7571056e-08 2:1.5809491e-08 
1 1:1.3146062e-08 2:9.9601983e-09 
1 1:1.299301e-08 2:1.0561039e-08 
1 1:1.3350393e-08 2:2.1556422e-08 
1 1:1.0218648e-08 2:2.0712643e-08 
1 1:6.8860137e-09 2:2.0694131e-08 
1 1:6.2915296e-09 2:2.0584863e-08 
1 1:6.2138532e-09 2:1.9657926e-08 
1 1:1.8485499e-05 2:8.3088847e-06 
1 1:1.4820153e-05 2:4.958866e-06 
1 1:4.6333431e-05 2:2.1995903e-05 
1 1:4.2012821e-05 2:2.3071368e-05 
1 1:2.4540045e-05 2:1.4744684e-05 
1 1:1.5003911e-05 2:1.0773182e-05 
1 1:1.4158069e-05 2:1.0821419e-05 
1 1:2.976402e-05 2:2.7064479e-05 
1 1:2.9314329e-05 2:2.6869083e-05 
1 1:3.6353801e-05 2:3.166855e-05 
1 1:3.706267e-05 2:3.1896189e-05 
1 1:3.3839419e-05 2:2.761061e-05 
1 1:2.7767487e-05 2:2.2225735e-05 
1 1:1.2145941e-05 2:8.4935239e-06 
1 1:4.5697423e-06 2:9.629629e-07 
1 1:4.5622472e-06 2:9.901031e-07 
1 1:2.0208147e-06 2:6.5423551e-07 
1 1:1.7004826e-06 2:6.7649942e-07 
1 1:6.4566316e-07 2:2.7114243e-07 
1 1:5.1814794e-07 2:2.6966253e-07 
1 1:4.5737109e-07 2:2.4379665e-07 
1 1:2.9819869e-07 2:2.2972463e-07 
1 1:2.4084059e-07 2:1.8332916e-07 
1 1:2.1452335e-07 2:2.2259902e-07 
1 1:2.6763196e-07 2:2.142595e-07 
1 1:3.2436972e-07 2:2.1784308e-07 
1 1:4.0380054e-07 2:3.1933108e-07 
1 1:4.6462532e-06 2:4.2233676e-06 
1 1:2.5126584e-05 2:1.60657e-05 
1 1:1.9653423e-05 2:1.9408464e-05 
1 1:1.4353441e-05 2:1.5003166e-05 
1 1:1.0932435e-05 2:1.125522e-05 
1 1:8.4249246e-06 2:7.89192e-06 
1 1:1.2891336e-05 2:9.5548907e-06 
1 1:1.9056695e-05 2:1.4055729e-05 
1 1:1.9150355e-05 2:1.4038401e-05 
1 1:1.9063509e-05 2:1.4124178e-05 
1 1:1.1963209e-05 2:1.1961398e-05 
1 1:6.4476804e-06 2:5.8827118e-06 
1 1:1.3037611e-05 2:1.1999705e-05 
1 1:2.3408346e-05 2:2.2178622e-05 
1 1:2.3440793e-05 2:2.1697089e-05 
1 1:2.2888186e-05 2:2.059208e-05 
1 1:1.5814553e-05 2:1.5112944e-05 
1 1:5.9554826e-06 2:5.7642999e-06 
1 1:4.8018094e-08 2:1.2726001e-07 
1 1:5.6627926e-08 2:1.0039928e-07 
1 1:1.4320022e-07 2:6.2254638e-07 
1 1:7.3499004e-06 2:7.260133e-06 
1 1:7.7977834e-06 2:6.6812583e-06 
1 1:7.8939575e-06 2:6.6179956e-06 
1 1:2.9915962e-05 2:2.4529508e-05 
1 1:1.7879903e-05 2:1.4530102e-05 
1 1:4.3842116e-05 2:2.5281246e-05 
1 1:3.7828413e-05 2:2.2073598e-05 
1 1:3.2982477e-05 2:1.9601815e-05 
1 1:3.3415736e-05 2:1.9627039e-05 
1 1:3.3673467e-06 2:4.7421345e-07 
1 1:2.7286492e-06 2:2.4576577e-07 
1 1:1.1281684e-06 2:1.7967792e-07 
1 1:5.3492385e-07 2:1.052663e-07 
1 1:3.0893808e-07 2:1.0752999e-07 
1 1:1.3794749e-07 2:4.5649046e-08 
1 1:1.2260625e-07 2:4.4342374e-08 
1 1:5.4696852e-06 2:3.7588184e-06 
1 1:7.3180687e-06 2:6.3451489e-06 
1 1:4.1533302e-06 2:4.1410298e-06 
1 1:4.0998448e-06 2:4.1224364e-06 
1 1:4.0858051e-06 2:4.11966e-06 
1 1:4.0994034e-06 2:4.4717505e-06 
1 1:3.0579969e-08 2:3.4710019e-08 
1 1:1.8426365e-08 2:3.2306436e-08 
1 1:1.693741e-08 2:3.0887657e-08 
1 1:3.1368769e-08 2:3.4176971e-08 
1 1:2.7536663e-08 2:3.3587457e-08 
1 1:6.1518395e-06 2:4.5285635e-06 
1 1:1.0116709e-05 2:7.5890995e-06 
1 1:1.014055e-05 2:7.7944806e-06 
1 1:1.7753388e-05 2:1.3726307e-05 
1 1:1.8540248e-05 2:1.493133e-05 
1 1:2.1816797e-05 2:1.8346249e-05 
1 1:2.8580791e-05 2:2.3966873e-05 
1 1:3.1813635e-05 2:2.715678e-05 
1 1:2.6714048e-05 2:2.4281637e-05 
1 1:3.0153556e-05 2:2.6326403e-05 
1 1:2.6146109e-05 2:2.3460163e-05 
1 1:1.6923021e-05 2:1.5993508e-05 
1 1:1.6936952e-05 2:1.5964655e-05 
1 1:1.3196253e-05 2:1.2666585e-05 
1 1:6.3450089e-06 2:6.2119712e-06 
1 1:5.8535423e-06 2:5.9382664e-06 
1 1:1.4833256e-07 2:5.5820118e-08 
1 1:1.0274114e-07 2:3.6036553e-08 
1 1:9.7745483e-08 2:4.3051118e-08 
1 1:9.8243084e-08 2:4.2459202e-08 
1 1:7.4613265e-08 2:4.1718541e-08 
1 1:8.1591041e-08 2:3.5317172e-08 
1 1:6.438949e-08 2:3.7879489e-08 
1 1:5.2673827e-08 2:3.6972666e-08 
1 1:6.2830133e-08 2:4.0440186e-08 
1 1:7.121786e-08 2:4.5315646e-08 
1 1:5.7940374e-08 2:3.6214589e-08 
1 1:5.7112213e-08 2:3.6777337e-08 
1 1:3.055133e-08 2:3.8607634e-08 
1 1:3.3245581e-08 2:3.7525531e-08 
1 1:3.4297836e-08 2:3.2779488e-08 
1 1:3.6378419e-08 2:3.1413998e-08 
1 1:3.2228578e-08 2:2.4711518e-08 
1 1:3.8962284e-08 2:2.8451825e-08 
1 1:3.7550183e-08 2:2.7608055e-08 
1 1:3.1465802e-08 2:2.9878012e-08 
1 1:4.5838159e-08 2:3.7212396e-08 
1 1:7.4387324e-08 2:2.9873691e-08 
1 1:7.4779455e-08 2:3.2673558e-08 
1 1:6.6014365e-08 2:3.0792758e-08 
1 1:4.3421175e-08 2:2.7752453e-08 
1 1:3.5406952e-08 2:2.8774107e-08 
1 1:5.7092921e-08 2:2.7139187e-08 
1 1:4.2690365e-08 2:2.7488139e-08 
1 1:9.7835482e-07 2:1.0715787e-07 
1 1:1.0923191e-06 2:1.4883124e-07 
1 1:1.1129921e-06 2:1.5128155e-07 
1 1:1.07782e-06 2:1.0032562e-07 
1 1:1.1205107e-06 2:1.1565807e-07 
1 1:1.1100639e-06 2:1.1696789e-07 
1 1:1.0889229e-06 2:1.0930336e-07 
1 1:1.8556339e-06 2:7.7453071e-08 
1 1:1.0141389e-05 2:7.031734e-06 
1 1:1.0135388e-05 2:7.049809e-06 
1 1:1.008751e-05 2:7.039603e-06 
1 1:4.9760287e-08 2:3.0147859e-08 
1 1:5.8987971e-08 2:3.9707648e-08 
1 1:6.7593683e-06 2:6.0724082e-06 
1 1:6.7632577e-06 2:6.1139677e-06 
1 1:6.8978426e-06 2:6.1025786e-06 
1 1:6.8492612e-06 2:6.0564439e-06 
1 1:3.1480135e-05 2:1.2534978e-05 
1 1:3.107063e-05 2:1.3178859e-05 
1 1:5.8116893e-05 2:3.9491464e-05 
1 1:6.1901508e-05 2:4.0295076e-05 
1 1:1.4298977e-05 2:1.4577783e-05 
1 1:1.3456319e-05 2:1.4438233e-05 
1 1:6.7166051e-06 2:6.8404287e-06 
1 1:4.5139334e-06 2:5.2098408e-06 
1 1:1.4960216e-06 2:1.6532631e-07 
1 1:1.2443396e-06 2:1.7489278e-07 
1 1:1.2201348e-06 2:1.5040462e-07 
1 1:3.893418e-06 2:6.7105935e-07 
1 1:3.285134e-06 2:3.6197459e-07 
1 1:3.1708692e-06 2:3.1341068e-07 
1 1:3.0868438e-06 2:2.6456615e-07 
1 1:3.1796745e-06 2:1.6865281e-07 
1 1:4.1435261e-06 2:1.8613843e-07 
1 1:9.010104e-06 2:3.8393214e-07 
1 1:7.4586298e-06 2:2.9173635e-07 
1 1:5.8568397e-06 2:1.4057072e-06 
1 1:3.7332354e-06 2:1.2806122e-06 
1 1:1.3890665e-06 2:5.112303e-07 
1 1:1.359235e-06 2:6.6159405e-07 
1 1:1.1664928e-06 2:6.0219201e-07 
1 1:4.4787412e-06 2:3.6035114e-07 
1 1:6.9453282e-08 2:2.8776239e-08 
1 1:6.3318415e-08 2:2.1450022e-08 
1 1:6.1242775e-08 2:2.1687733e-08 
1 1:2.5908445e-07 2:2.2236192e-08 
1 1:2.1434063e-07 2:3.1312714e-08 
1 1:3.9271986e-07 2:3.0403001e-08 
1 1:4.1745556e-07 2:2.4309953e-08 
1 1:4.2064101e-07 2:2.589422e-08 
1 1:2.9355524e-07 2:2.5051208e-08 
1 1:2.1171902e-07 2:2.2912053e-08 
1 1:3.4796634e-07 2:2.1710041e-08 
1 1:1.2731104e-07 2:2.2835702e-08 
1 1:1.1480526e-07 2:2.2824459e-08 
1 1:6.0643782e-07 2:8.9262043e-08 
1 1:3.1047717e-07 2:4.8094167e-08 
1 1:3.1217738e-07 2:4.9274731e-08 
1 1:3.0763503e-07 2:4.8523316e-08 
1 1:4.033324e-07 2:5.9261792e-08 
1 1:5.0631671e-07 2:3.0887296e-08 
1 1:1.0695471e-08 2:1.0751067e-08 
1 1:5.7765788e-09 2:1.01769e-08 
1 1:5.8372533e-09 2:1.0544701e-08 
1 1:6.8341872e-09 2:9.867751e-09 
1 1:1.4766344e-08 2:1.1979161e-08 
1 1:1.0355522e-07 2:3.42376e-08 
1 1:1.3237814e-07 2:3.7779911e-08 
1 1:1.4779522e-07 2:4.1837163e-08 
1 1:1.4721939e-07 2:4.0411452e-08 
1 1:1.3437268e-07 2:3.1047296e-08 
1 1:8.0327632e-08 2:2.5822232e-08 
1 1:5.8961177e-08 2:3.2589035e-08 
1 1:7.4867902e-08 2:3.9275141e-08 
1 1:2.5225151e-07 2:6.632612e-08 
1 1:2.9577352e-07 2:1.4537735e-07 
1 1:2.8116481e-07 2:7.8611046e-08 
1 1:2.3520408e-07 2:8.0436986e-08 
1 1:3.807891e-07 2:7.8873228e-08 
1 1:1.1303238e-07 2:6.9349588e-08 
1 1:1.9260232e-07 2:8.5383163e-08 
1 1:5.1592386e-07 2:1.1115635e-07 
1 1:7.0418752e-07 2:1.6797142e-07 
1 1:1.1282963e-06 2:1.8791718e-07 
1 1:1.3566061e-06 2:1.6271636e-07 
1 1:1.5535076e-06 2:2.0612964e-07 
1 1:1.1346784e-06 2:1.812687e-07 
1 1:6.0323158e-07 2:1.686608e-07 
1 1:1.9497273e-05 2:2.029735e-05 
1 1:3.5543421e-05 2:3.1551436e-05 
1 1:3.5192674e-05 2:3.1302695e-05 
1 1:2.094589e-05 2:1.9996538e-05 
1 1:2.097473e-05 2:1.9982584e-05 
1 1:2.488369e-05 2:2.130473e-05 
1 1:1.2022985e-05 2:3.8646275e-05 
1 1:2.1993797e-06 2:2.3504756e-07 
1 1:2.5000658e-06 2:2.6596964e-07 
1 1:3.5325024e-06 2:3.6913953e-07 
1 1:2.9569678e-06 2:3.4185072e-07 
1 1:4.02473e-06 2:3.5359709e-07 
1 1:5.4299113e-07 2:1.0279493e-07 
1 1:7.5598921e-07 2:1.3400119e-07 
1 1:6.7985284e-07 2:1.1909071e-07 
1 1:6.4383421e-07 2:1.2032054e-07 
1 1:3.851579e-07 2:7.9708442e-08 
1 1:1.9810409e-06 2:2.0369396e-07 
1 1:1.8199619e-06 2:2.151894e-07 
1 1:1.7456467e-06 2:2.0824036e-07 
1 1:1.8794262e-06 2:2.5576766e-07 
1 1:2.8010739e-05 2:2.5870478e-05 
1 1:2.7953615e-05 2:2.5070694e-05 
1 1:2.845823e-05 2:2.4325177e-05 
1 1:2.1610455e-05 2:6.8180345e-06 
1 1:1.1767192e-06 2:3.5127479e-07 
1 1:2.5012831e-06 2:5.0281876e-07 
1 1:1.1951963e-05 2:9.9066654e-06 
1 1:1.313085e-05 2:9.9649576e-06 
1 1:1.3325484e-05 2:9.9728489e-06 
1 1:9.2068227e-06 2:7.0149473e-06 
1 1:8.471932e-06 2:5.2574544e-06 
1 1:4.9339182e-07 2:5.0958228e-08 
1 1:1.1785808e-06 2:1.2362833e-07 
1 1:1.371732e-06 2:1.3808737e-07 
1 1:1.5995005e-06 2:1.5773024e-07 
1 1:1.9231911e-06 2:1.835546e-07 
1 1:1.9699059e-06 2:1.7231994e-07 
1 1:2.1429351e-06 2:1.7426558e-07 
1 1:1.0139988e-06 2:9.2201371e-08 
1 1:7.458993e-07 2:2.9788186e-07 
1 1:7.0108271e-07 2:2.2883967e-07 
1 1:5.9409249e-07 2:2.6138424e-07 
1 1:5.8776494e-07 2:2.8229852e-07 
1 1:3.6319807e-07 2:1.9455727e-07 
1 1:7.984832e-08 2:3.1534722e-08 
1 1:3.2035281e-08 2:1.809353e-08 
1 1:3.3649789e-08 2:1.5568974e-08 
1 1:4.2025565e-08 2:2.1341407e-08 
1 1:2.5343123e-07 2:3.5568003e-08 
1 1:3.3191133e-07 2:3.9475708e-08 
1 1:3.6909529e-07 2:4.8298037e-08 
1 1:6.1352036e-07 2:6.8278713e-08 
1 1:7.5100775e-07 2:7.9088087e-08 
1 1:1.0614934e-06 2:1.2693291e-07 
1 1:1.0211764e-07 2:2.5179371e-08 
1 1:2.8211103e-05 2:2.694397e-05 
1 1:2.8797944e-05 2:2.650972e-05 
1 1:2.8985596e-05 2:2.6562495e-05 
1 1:1.8292953e-05 2:1.7028853e-05 
1 1:1.827942e-05 2:1.7006584e-05 
1 1:2.9551796e-05 2:2.6041042e-05 
1 1:3.4882727e-07 2:2.3433424e-07 
1 1:1.390406e-06 2:2.185384e-07 
1 1:2.019501e-06 2:1.9782023e-07 
1 1:2.0661799e-06 2:2.5423591e-07 
1 1:1.2954048e-06 2:2.1664752e-07 
1 1:1.6635395e-06 2:2.7157578e-07 
1 1:1.7549287e-06 2:1.8173197e-07 
1 1:3.1341053e-06 2:6.4644553e-07 
1 1:1.1818457e-06 2:1.495558e-07 
1 1:2.0560019e-06 2:2.0307873e-07 
1 1:2.6496261e-06 2:2.766699e-07 
1 1:2.1244543e-06 2:2.0384295e-07 
1 1:1.8174661e-06 2:1.7682956e-07 
1 1:1.5781947e-06 2:1.4891719e-07 
1 1:9.9959078e-07 2:9.2659276e-08 
1 1:1.192835e-06 2:9.8602161e-08 
1 1:1.5504308e-06 2:3.4171363e-07 
1 1:2.6659128e-06 2:1.5459564e-07 
1 1:2.1283376e-06 2:3.2955285e-07 
1 1:1.8942021e-06 2:1.2191355e-07 
1 1:3.1891025e-06 2:2.1823586e-07 
1 1:1.7462638e-06 2:1.05698e-07 
1 1:1.8855863e-06 2:1.2488187e-07 
1 1:2.2781767e-06 2:1.4882378e-07 
1 1:3.3413194e-06 2:2.2019661e-07 
1 1:2.6267009e-06 2:1.5734103e-07 
1 1:1.9313224e-06 2:1.1933338e-07 
1 1:0.00054922892 2:5.0172385e-05 
1 1:0.00058100648 2:5.3305053e-05 
1 1:0.00059404406 2:5.6679448e-05 
1 1:0.00059019319 2:5.5849575e-05 
1 1:0.00038536651 2:4.2146179e-05 
1 1:1.7052266e-06 2:8.7319174e-08 
1 1:2.8424767e-05 2:2.6989909e-05 
1 1:2.8451445e-05 2:2.7051443e-05 
1 1:2.8643168e-05 2:2.70732e-05 
1 1:1.3432497e-07 2:3.1106526e-08 
1 1:7.6258712e-08 2:2.7450828e-08 
1 1:8.7125486e-08 2:3.3296712e-08 
1 1:6.6071409e-08 2:2.5965266e-08 
1 1:5.5945972e-08 2:2.9522808e-08 
1 1:5.6090953e-08 2:3.1730474e-08 
1 1:8.568529e-08 2:3.2386768e-08 
1 1:2.3320484e-07 2:4.0871736e-07 
1 1:1.8641576e-07 2:3.645611e-07 
1 1:1.712565e-07 2:3.7291787e-07 
1 1:1.227136e-07 2:2.9603553e-07 
1 1:1.0474378e-07 2:2.7329596e-07 
1 1:6.7936326e-08 2:2.0991314e-08 
1 1:4.2331191e-08 2:1.867064e-08 
1 1:2.5326622e-08 2:1.121366e-08 
1 1:2.671851e-08 2:1.7757615e-08 
1 1:1.1324859e-08 2:8.5277948e-09 
1 1:9.2951556e-09 2:8.6238618e-09 
1 1:8.4598375e-09 2:7.7265613e-09 
1 1:9.8344897e-09 2:9.6595194e-09 
1 1:1.0260405e-08 2:1.0857374e-08 
1 1:1.0937071e-08 2:9.2956527e-09 
1 1:2.2608453e-08 2:1.8391963e-08 
1 1:2.9108899e-08 2:2.2043444e-08 
1 1:6.1651559e-08 2:2.3057423e-08 
1 1:9.805223e-08 2:3.0172705e-08 
1 1:4.3414339e-08 2:2.2311841e-08 
1 1:4.2346094e-08 2:1.879837e-08 
1 1:2.1750968e-08 2:2.208766e-08 
1 1:2.3919234e-08 2:1.8643691e-08 
1 1:1.8574681e-08 2:1.3295342e-08 
1 1:5.5351364e-08 2:2.4134154e-08 
1 1:9.9674578e-08 2:2.6884518e-08 
1 1:1.8254325e-07 2:5.1240491e-08 
1 1:1.9158947e-07 2:4.4608768e-08 
1 1:2.4973883e-07 2:4.2515685e-08 
1 1:1.5842e-07 2:3.5425892e-08 
1 1:9.2899093e-08 2:3.8537189e-08 
1 1:8.9645048e-08 2:3.8487649e-08 
1 1:1.240173e-07 2:3.9878211e-08 
1 1:1.0779323e-07 2:4.200235e-08 
1 1:1.3212537e-07 2:2.8725679e-08 
1 1:1.5622564e-07 2:3.5331527e-08 
1 1:9.4414031e-08 2:2.4101953e-08 
1 1:7.4854959e-08 2:1.8531264e-08 
1 1:6.1599658e-08 2:2.0178955e-08 
1 1:8.8880884e-08 2:2.7861187e-08 
1 1:9.3173543e-08 2:2.8226289e-08 
1 1:5.368686e-08 2:1.8027831e-08 
1 1:3.0337208e-08 2:1.1372529e-08 
1 1:4.6508628e-08 2:1.3915739e-08 
1 1:6.700894e-09 2:7.076404e-09 
1 1:1.2652871e-08 2:9.3394028e-09 
1 1:1.2694943e-08 2:7.0659152e-09 
1 1:1.7992038e-08 2:7.1262644e-09 
1 1:2.2682942e-08 2:1.1853807e-08 
1 1:3.1421653e-08 2:1.1603157e-08 
1 1:3.6243863e-08 2:1.0517824e-08 
1 1:5.8996174e-08 2:2.406362e-08 
1 1:2.9079926e-07 2:2.5474131e-08 
1 1:2.9700331e-07 2:2.5979049e-08 
1 1:3.9271896e-07 2:2.7798557e-08 
1 1:3.8887998e-07 2:2.6232203e-08 
1 1:3.8129208e-07 2:2.4443439e-08 
1 1:8.8490866e-08 2:1.2210802e-08 
1 1:5.6663606e-08 2:1.214538e-08 
1 1:1.0010847e-08 2:9.7028369e-09 
1 1:8.1923347e-09 2:8.3838494e-09 
1 1:7.3403607e-09 2:7.2256809e-09 
1 1:1.3422144e-08 2:9.6155292e-09 
1 1:1.144142e-08 2:7.8031764e-09 
1 1:1.6276988e-08 2:1.0180331e-08 
1 1:1.2121364e-08 2:9.7240045e-09 
1 1:1.2838371e-08 2:8.7367381e-09 
1 1:1.0364612e-08 2:7.2886276e-09 
1 1:2.584116e-08 2:9.8498335e-09 
1 1:4.4012728e-08 2:1.5091038e-08 
1 1:7.3500535e-08 2:2.5935729e-08 
1 1:1.0594785e-07 2:4.1352605e-08 
1 1:1.1939347e-07 2:4.1409263e-08 
1 1:1.381422e-07 2:5.0656147e-08 
1 1:1.4011824e-07 2:5.2584083e-08 
1 1:1.2016787e-07 2:5.2416462e-08 
1 1:1.1015348e-07 2:4.9469402e-08 
1 1:9.1192982e-08 2:4.2252029e-08 
1 1:6.1770837e-08 2:3.3093137e-08 
1 1:4.4815559e-08 2:3.1666058e-08 
1 1:4.6259132e-08 2:3.2503474e-08 
1 1:5.2391666e-08 2:2.4046651e-08 
1 1:2.8791518e-08 2:2.1160972e-08 
1 1:2.9996352e-08 2:2.2183211e-08 
1 1:1.9284928e-08 2:1.8986809e-08 
1 1:2.1865198e-08 2:1.4913783e-08 
1 1:2.1906536e-08 2:1.6280968e-08 
1 1:1.7467623e-08 2:1.2822236e-08 
1 1:3.9001536e-08 2:1.8259803e-08 
1 1:2.7813506e-08 2:1.8880712e-08 
1 1:2.9255014e-08 2:1.4946873e-08 
1 1:3.2703075e-08 2:1.2942569e-08 
1 1:2.9185344e-08 2:1.4337352e-08 
1 1:3.5827322e-08 2:1.4228567e-08 
1 1:3.7361636e-08 2:1.8636863e-08 
1 1:2.5530375e-08 2:1.3919603e-08 
1 1:3.1759924e-08 2:1.4337406e-08 
1 1:3.5725782e-08 2:1.9672795e-08 
1 1:3.5573131e-08 2:2.1124169e-08 
1 1:1.6411976e-08 2:8.3934574e-09 
1 1:1.012214e-08 2:7.9454773e-09 
1 1:5.773708e-08 2:1.7543941e-08 
1 1:6.6541795e-08 2:2.0858701e-08 
1 1:7.1809049e-08 2:2.383605e-08 
1 1:7.2450806e-08 2:2.4886419e-08 
1 1:9.9657069e-08 2:2.6011984e-08 
1 1:1.0470739e-07 2:2.1338774e-08 
1 1:7.027872e-08 2:1.5280874e-08 
1 1:2.8225015e-08 2:1.2554392e-08 
1 1:1.5862954e-08 2:1.0332049e-08 
1 1:1.6130849e-08 2:1.0016586e-08 
1 1:1.5073371e-08 2:1.0253136e-08 
1 1:1.3487269e-08 2:9.8008654e-09 
1 1:1.0236068e-08 2:7.9250356e-09 
1 1:7.8198598e-09 2:9.5782332e-09 
1 1:4.2711891e-09 2:7.4918537e-09 
1 1:2.8312498e-09 2:6.2101269e-09 
1 1:2.5766559e-09 2:6.4956475e-09 
1 1:2.7057906e-09 2:6.4883996e-09 
1 1:3.6315673e-09 2:6.8782245e-09 
1 1:5.4562212e-09 2:8.8336225e-09 
1 1:1.5454372e-05 2:1.662112e-05 
1 1:1.7744974e-05 2:1.7763543e-05 
1 1:1.7861476e-05 2:1.7713887e-05 
1 1:1.7881039e-05 2:1.7705067e-05 
1 1:1.7886752e-05 2:1.7701867e-05 
1 1:1.7950396e-05 2:1.7694655e-05 
1 1:6.290778e-06 2:5.8135267e-06 
1 1:1.840517e-05 2:1.7948497e-05 
1 1:1.8057199e-05 2:1.7666484e-05 
1 1:5.4766851e-09 2:6.790151e-09 
1 1:5.0777393e-08 2:9.991539e-09 
1 1:5.6927556e-08 2:1.2144041e-08 
1 1:5.7517979e-08 2:1.3083219e-08 
1 1:5.9382534e-08 2:1.4023508e-08 
1 1:5.429034e-08 2:1.2590633e-08 
1 1:1.0285941e-08 2:7.716647e-09 
1 1:1.2199711e-08 2:7.8484218e-09 
1 1:1.5293817e-08 2:7.1309539e-09 
1 1:1.521808e-08 2:1.4800802e-08 
1 1:5.4248562e-09 2:7.5005918e-09 
1 1:5.4278944e-09 2:6.8631261e-09 
1 1:7.7451426e-09 2:7.0629358e-09 
1 1:7.9891311e-09 2:7.357954e-09 
1 1:6.2549408e-09 2:7.7991156e-09 
1 1:7.9227083e-09 2:8.7984253e-09 
1 1:1.2980892e-07 2:4.1143955e-08 
1 1:1.3429308e-07 2:4.082903e-08 
1 1:1.4516701e-07 2:4.3201496e-08 
1 1:1.4330447e-07 2:4.4244504e-08 
1 1:1.7885378e-05 2:1.7541357e-05 
1 1:1.2364207e-08 2:1.2859702e-08 
1 1:1.2233502e-08 2:1.2261019e-08 
1 1:1.4845181e-08 2:1.596392e-08 
1 1:1.2333601e-08 2:1.5797757e-08 
1 1:1.7335926e-08 2:1.4010191e-08 
1 1:3.4612062e-07 2:3.421288e-08 
1 1:3.494394e-07 2:3.3091627e-08 
1 1:3.5268206e-07 2:3.4025372e-08 
1 1:3.5232746e-07 2:3.4275656e-08 
1 1:3.4663158e-07 2:3.0607317e-08 
1 1:1.4388212e-07 2:1.4179137e-08 
1 1:2.0202939e-08 2:7.7032566e-09 
1 1:6.8397012e-09 2:6.9261862e-09 
1 1:5.7207686e-09 2:6.9738563e-09 
1 1:5.3887716e-09 2:6.1912185e-09 
1 1:8.8647901e-09 2:1.0459625e-08 
1 1:4.5053233e-09 2:7.8922204e-09 
1 1:5.2733285e-09 2:7.5532817e-09 
1 1:3.9289318e-09 2:8.0696711e-09 
1 1:3.4496179e-09 2:7.5875565e-09 
1 1:4.6576196e-09 2:8.3518602e-09 
1 1:7.2779545e-09 2:7.3599971e-09 
1 1:6.5532701e-07 2:1.0616249e-07 
1 1:7.9546957e-07 2:1.702479e-07 
1 1:8.5929163e-07 2:2.0827706e-07 
1 1:8.8715312e-07 2:2.1487571e-07 
1 1:8.1550508e-07 2:1.8328729e-07 
1 1:6.288861e-07 2:1.7181049e-07 
1 1:1.8525999e-07 2:9.9219718e-08 
1 1:1.6501849e-07 2:9.6303598e-08 
1 1:1.4850072e-07 2:4.5702017e-08 
1 1:8.5091269e-08 2:3.1007768e-08 
1 1:9.4763412e-08 2:3.576681e-08 
1 1:9.1158975e-08 2:3.5236673e-08 
1 1:6.1976052e-09 2:7.668792e-09 
1 1:6.3527427e-09 2:7.9988429e-09 
1 1:5.999392e-09 2:6.8579983e-09 
1 1:5.4809718e-09 2:7.7704109e-09 
1 1:4.5122268e-09 2:8.0185611e-09 
1 1:3.7748015e-09 2:6.9878066e-09 
1 1:4.2816253e-09 2:7.0812493e-09 
1 1:4.9380233e-09 2:7.2839261e-09 
1 1:4.5393099e-09 2:6.3875604e-09 
1 1:4.4469695e-09 2:6.0610282e-09 
1 1:1.0410084e-08 2:7.4410352e-09 
1 1:1.052308e-08 2:8.815622e-09 
1 1:2.0529911e-08 2:1.0891403e-08 
1 1:3.6496754e-08 2:1.2029717e-08 
1 1:3.7222197e-08 2:1.2470439e-08 
1 1:5.5566467e-08 2:1.1519981e-08 
1 1:3.700756e-08 2:1.2183324e-08 
1 1:1.0852483e-05 2:1.2979156e-05 
1 1:1.6422624e-05 2:1.6204069e-05 
1 1:1.6436511e-05 2:1.6197951e-05 
1 1:1.6442188e-05 2:1.6198954e-05 
1 1:1.6410043e-05 2:1.6205008e-05 
1 1:1.6376335e-05 2:1.6239854e-05 
1 1:1.436352e-05 2:1.1820376e-05 
1 1:4.4447539e-09 2:6.6169034e-09 
1 1:1.3317122e-08 2:1.0192913e-08 
1 1:1.0290572e-08 2:7.6296487e-09 
1 1:7.1666287e-09 2:7.2450173e-09 
1 1:8.5571833e-09 2:6.9073809e-09 
1 1:1.7024967e-08 2:1.6269354e-08 
1 1:2.6478131e-08 2:1.6178361e-08 
1 1:2.8654487e-08 2:1.5505939e-08 
1 1:2.923664e-08 2:1.864827e-08 
1 1:3.166018e-08 2:1.9588e-08 
1 1:5.0157812e-08 2:2.5362035e-08 
1 1:2.537894e-08 2:1.1756246e-08 
1 1:2.4704369e-08 2:9.4033486e-09 
1 1:7.7395922e-08 2:2.2655575e-08 
1 1:6.7864267e-08 2:6.6599381e-08 
1 1:1.0536507e-07 2:8.4812186e-08 
1 1:6.0203634e-08 2:1.8860083e-08 
1 1:4.0611377e-08 2:1.5871768e-08 
1 1:2.6146796e-08 2:1.1098736e-08 
1 1:2.5510998e-08 2:9.6223031e-09 
1 1:6.7416358e-09 2:7.8097186e-09 
1 1:9.6629078e-09 2:1.1937697e-08 
1 1:2.0907417e-05 2:1.9622823e-05 
1 1:1.66093e-05 2:1.632053e-05 
1 1:1.6606976e-05 2:1.6326766e-05 
1 1:2.0166292e-05 2:1.6952876e-05 
1 1:3.5813932e-07 2:6.5524171e-08 
1 1:3.2459601e-07 2:6.3225081e-08 
1 1:2.0210892e-08 2:1.8868257e-08 
1 1:6.0654476e-09 2:1.3972414e-08 
1 1:5.6481156e-09 2:1.3074612e-08 
1 1:5.3721338e-09 2:1.2323094e-08 
1 1:6.0557781e-09 2:1.2145694e-08 
1 1:1.0399833e-08 2:1.7398485e-08 
1 1:1.7542932e-05 2:1.6633825e-05 
1 1:1.6785608e-05 2:1.640519e-05 
1 1:1.6587448e-05 2:1.6333669e-05 
1 1:1.6590809e-05 2:1.6284264e-05 
1 1:1.6606176e-05 2:1.6112732e-05 
1 1:1.6705458e-05 2:1.5327003e-05 
1 1:9.2349143e-05 2:0.00010960671 
1 1:9.0648785e-05 2:0.00010849916 
1 1:9.0745347e-05 2:0.00010848443 
1 1:9.1217247e-05 2:0.00010840048 
1 1:9.3182684e-05 2:0.00010807631 
1 1:1.3360718e-05 2:1.7888292e-05 
1 1:2.1981124e-08 2:1.3638325e-08 
1 1:2.8247259e-08 2:1.7387931e-08 
1 1:3.3669053e-08 2:1.8644356e-08 
1 1:4.7665914e-08 2:1.6246096e-08 
1 1:4.6271138e-08 2:1.5417306e-08 
1 1:4.7323009e-08 2:1.4618301e-08 
1 1:7.7704672e-08 2:1.9145281e-08 
1 1:1.0210891e-07 2:1.5054038e-08 
1 1:1.1740803e-05 2:1.6079883e-05 
1 1:1.5805446e-05 2:1.5815569e-05 
1 1:4.5096877e-05 2:4.2101666e-05 
1 1:8.5665753e-05 2:7.9529842e-05 
1 1:8.3719727e-05 2:7.8442758e-05 
1 1:5.268082e-05 2:4.9066967e-05 
1 1:2.4292034e-05 2:2.3446501e-05 
1 1:4.539086e-05 2:4.6372787e-05 
1 1:4.5222765e-05 2:4.6328558e-05 
1 1:4.4920492e-05 2:4.6088455e-05 
1 1:1.6220043e-07 2:2.839265e-08 
1 1:1.8308297e-07 2:3.1192384e-08 
1 1:1.6420937e-07 2:3.2204772e-08 
1 1:1.7239226e-07 2:5.31003e-08 
1 1:1.6063034e-07 2:4.5754675e-08 
1 1:9.6612468e-08 2:4.0122278e-08 
1 1:1.0395439e-07 2:3.7476293e-08 
1 1:7.6299252e-08 2:1.5082156e-08 
1 1:1.0100883e-07 2:1.3607289e-08 
1 1:2.1371071e-07 2:8.5095842e-08 
1 1:8.0854548e-06 2:7.880843e-06 
1 1:7.7768936e-06 2:7.6447066e-06 
1 1:7.6388578e-06 2:8.5818077e-06 
1 1:2.7548301e-07 2:9.5822813e-08 
1 1:2.3282733e-07 2:8.8050386e-08 
1 1:4.1756497e-08 2:1.8501445e-08 
1 1:4.5948475e-08 2:1.7563075e-08 
1 1:4.2542451e-08 2:1.6197734e-08 
1 1:4.3827612e-08 2:1.505215e-08 
1 1:3.7410707e-06 2:3.8711925e-06 
1 1:6.3967982e-06 2:6.3257524e-06 
1 1:5.0963939e-06 2:4.5828808e-06 
1 1:1.7036176e-06 2:1.6136698e-06 
1 1:1.2756448e-07 2:6.6202238e-08 
1 1:1.6032182e-06 2:1.3083322e-06 
1 1:9.0708081e-06 2:4.6729195e-06 
1 1:7.9977486e-06 2:6.4726665e-06 
1 1:1.2418062e-05 2:1.0273003e-05 
1 1:9.6894745e-06 2:9.8596845e-06 
1 1:7.8911556e-06 2:8.3892858e-06 
1 1:7.3288578e-06 2:7.574432e-06 
1 1:1.143141e-05 2:1.1848681e-05 
1 1:2.5304869e-05 2:1.9200121e-05 
1 1:2.6953798e-05 2:2.0651232e-05 
1 1:2.7687705e-05 2:2.11974e-05 
1 1:2.8488077e-05 2:1.5853302e-05 
1 1:1.6431584e-05 2:8.8342931e-06 
1 1:1.1137205e-05 2:5.735283e-06 
1 1:1.1254875e-05 2:5.7381527e-06 
1 1:4.114078e-07 2:3.7857694e-07 
1 1:1.1020036e-05 2:9.9498206e-06 
1 1:1.1927925e-05 2:1.107727e-05 
1 1:1.3256167e-05 2:1.1871866e-05 
1 1:1.6244088e-05 2:7.7594586e-06 
1 1:4.9328755e-06 2:1.2857449e-06 
1 1:3.8589803e-06 2:5.7846397e-07 
1 1:3.3226026e-06 2:3.8483684e-07 
1 1:7.7772025e-06 2:6.7390358e-06 
1 1:7.8103442e-06 2:6.8383305e-06 
1 1:5.9101739e-06 2:5.0232012e-06 
1 1:6.2262763e-06 2:4.9844588e-06 
1 1:6.4933323e-07 2:1.7001287e-07 
1 1:6.2334867e-07 2:2.0052114e-07 
1 1:6.0119624e-07 2:2.1366527e-07 
1 1:3.7656398e-07 2:2.3720088e-07 
1 1:5.2297955e-07 2:2.4968802e-07 
1 1:1.7959401e-07 2:6.7333088e-08 
1 1:1.6466738e-07 2:6.1021266e-08 
1 1:1.6315851e-07 2:5.5421995e-08 
1 1:3.3688326e-06 2:9.8007482e-07 
1 1:4.339203e-06 2:4.1111074e-06 
1 1:4.3649261e-06 2:4.0487529e-06 
1 1:4.3167423e-06 2:4.0342742e-06 
1 1:6.7870803e-06 2:6.1065865e-06 
1 1:4.5788377e-06 2:3.9703784e-06 
1 1:5.0252001e-06 2:3.4906094e-06 
1 1:1.128227e-07 2:5.608918e-08 
1 1:1.2834486e-07 2:3.9498957e-08 
1 1:1.0474787e-07 2:6.8071391e-08 
1 1:1.0323941e-07 2:4.662044e-08 
1 1:4.2149936e-08 2:4.6633258e-08 
1 1:9.9939661e-08 2:7.1335693e-08 
1 1:1.1823493e-07 2:7.5466905e-08 
1 1:9.0559731e-08 2:6.8136705e-08 
1 1:8.4536502e-08 2:4.8169815e-08 
1 1:4.7899771e-06 2:4.8177059e-06 
1 1:4.8439576e-06 2:4.762935e-06 
1 1:4.8924215e-06 2:4.7476862e-06 
1 1:5.581057e-06 2:4.4733957e-06 
1 1:6.8305889e-08 2:3.2761409e-08 
1 1:4.6491389e-08 2:3.031686e-08 
1 1:4.8223399e-08 2:3.8179307e-08 
1 1:5.2109912e-08 2:3.8395359e-08 
1 1:6.1257703e-08 2:3.7862544e-08 
1 1:5.1581793e-08 2:3.772812e-08 
1 1:4.1978977e-08 2:3.4209287e-08 
1 1:4.1745269e-08 2:3.4776789e-08 
1 1:4.9895636e-08 2:3.2483807e-08 
1 1:4.3485578e-06 2:3.8284728e-06 
1 1:2.0913803e-05 2:1.9073886e-05 
1 1:2.0658686e-05 2:1.9873385e-05 
1 1:2.9624297e-05 2:2.8712519e-05 
1 1:2.5754728e-05 2:2.2175487e-05 
1 1:5.6797799e-06 2:5.5561465e-06 
1 1:6.4371461e-06 2:5.5174769e-06 
1 1:1.7247238e-05 2:1.5816642e-05 
1 1:5.4696334e-06 2:5.5155779e-06 
1 1:5.5746154e-06 2:5.5352349e-06 
1 1:8.6985464e-06 2:8.4349007e-06 
1 1:5.5487107e-06 2:5.5174187e-06 
1 1:5.4206165e-06 2:5.4332434e-06 
1 1:6.0589366e-06 2:5.5338751e-06 
1 1:6.0108572e-06 2:5.7530886e-06 
1 1:1.6334858e-05 2:1.4453028e-05 
1 1:3.0056145e-05 2:3.2072411e-05 
1 1:8.7347785e-05 2:0.00013573477 
1 1:8.6309918e-05 2:0.00013134631 
1 1:6.674418e-05 2:0.000112428 
1 1:4.3593614e-05 2:5.211585e-05 
1 1:3.7988337e-05 2:4.3895745e-05 
1 1:1.6628614e-05 2:1.486801e-05 
1 1:3.3942798e-05 2:2.9325675e-05 
1 1:2.0177147e-05 2:1.925281e-05 
1 1:3.1132732e-05 2:3.2400209e-05 
1 1:1.9953449e-05 2:1.9732152e-05 
1 1:2.8724245e-05 2:2.9722854e-05 
1 1:1.6594682e-05 2:1.5958994e-05 
1 1:5.5041118e-05 2:3.512547e-05 
1 1:7.0131774e-05 2:5.1666797e-05 
1 1:9.4904264e-05 2:8.0637715e-05 
1 1:9.7278664e-05 2:8.03645e-05 
1 1:5.3805598e-05 2:5.325086e-05 
1 1:3.3573305e-05 2:3.012531e-05 
1 1:3.4181396e-05 2:2.8654383e-05 
1 1:1.8426115e-05 2:1.2032052e-05 
1 1:6.0894203e-08 2:3.5772408e-08 
1 1:4.7396383e-08 2:3.2606886e-08 
1 1:4.5392069e-08 2:2.9563168e-08 
1 1:3.4392465e-08 2:2.7698909e-08 
1 1:3.185928e-08 2:2.8269666e-08 
1 1:4.8660198e-08 2:3.0340453e-08 
1 1:3.4108266e-08 2:2.6831906e-08 
1 1:4.8950561e-08 2:2.7186662e-08 
1 1:6.2796755e-06 2:6.3638064e-06 
1 1:6.8478146e-06 2:6.2631966e-06 
1 1:2.8741897e-05 2:3.5753053e-05 
1 1:2.8755394e-05 2:3.5769705e-05 
1 1:4.0200149e-05 2:4.810798e-05 
1 1:2.736037e-05 2:3.4508167e-05 
1 1:2.1356911e-05 2:2.545438e-05 
1 1:6.7311355e-06 2:6.5519738e-06 
1 1:6.4114668e-08 2:2.9147559e-08 
1 1:4.3840717e-08 2:3.1869803e-08 
1 1:5.2894889e-08 2:3.1763378e-08 
1 1:7.1585655e-08 2:3.5118442e-08 
1 1:6.5980557e-08 2:3.2634787e-08 
1 1:6.4900175e-08 2:3.6241674e-08 
1 1:3.8507899e-08 2:2.9193318e-08 
1 1:1.0167738e-05 2:9.4876275e-06 
1 1:1.0263848e-05 2:9.6493388e-06 
1 1:1.0260171e-05 2:9.6485263e-06 
1 1:1.0199776e-05 2:9.6287496e-06 
1 1:1.8925877e-05 2:1.8248231e-05 
1 1:1.9115273e-05 2:1.8488603e-05 
1 1:7.0555543e-06 2:6.7051613e-06 
1 1:7.5999682e-06 2:6.2114806e-06 
1 1:5.9587477e-06 2:3.7888223e-06 
1 1:1.0851749e-05 2:9.7147629e-06 
1 1:1.056017e-05 2:9.6770501e-06 
1 1:1.0545726e-05 2:9.6842333e-06 
1 1:7.2314796e-08 2:3.0964946e-08 
1 1:9.1760366e-08 2:3.8670627e-08 
1 1:4.1925573e-07 2:2.7729606e-07 
1 1:4.5976494e-07 2:3.0353973e-07 
1 1:3.7625389e-07 2:2.0903637e-07 
1 1:1.8672365e-07 2:7.3097758e-08 
1 1:1.5678167e-07 2:6.7697517e-08 
1 1:1.4117355e-07 2:5.8456112e-08 
1 1:1.5779873e-07 2:6.0657334e-08 
1 1:1.3301765e-07 2:5.5287443e-08 
1 1:8.7231069e-08 2:3.5500097e-08 
1 1:1.5150929e-07 2:5.0150745e-08 
1 1:5.3395829e-06 2:4.3964185e-06 
1 1:5.2334405e-06 2:4.3573946e-06 
1 1:1.108524e-05 2:1.0378288e-05 
1 1:1.8661885e-05 2:9.3230351e-06 
1 1:1.6635136e-05 2:8.9693226e-06 
1 1:1.6616849e-05 2:8.9653879e-06 
1 1:1.6647886e-05 2:9.0466495e-06 
1 1:3.1212553e-08 2:2.7538061e-08 
1 1:1.6273973e-08 2:2.7889874e-08 
1 1:2.4128205e-08 2:2.7624464e-08 
1 1:2.1357358e-08 2:2.6976851e-08 
1 1:2.2713695e-08 2:2.8994169e-08 
1 1:3.0880887e-08 2:3.0458767e-08 
1 1:3.2529001e-08 2:3.1979822e-08 
1 1:2.1365488e-08 2:3.1936622e-08 
1 1:4.1152749e-08 2:3.4558291e-08 
1 1:6.9608063e-08 2:3.5741726e-08 
1 1:6.8284283e-08 2:3.7853831e-08 
1 1:5.3076377e-08 2:3.7720217e-08 
1 1:4.2931786e-06 2:3.8905205e-06 
1 1:4.1311011e-06 2:3.8760597e-06 
1 1:4.1210221e-06 2:3.8521591e-06 
1 1:6.665281e-06 2:6.5729045e-06 
1 1:5.9550962e-06 2:4.4560086e-06 
1 1:4.0146138e-06 2:3.8879479e-06 
1 1:2.1994667e-08 2:2.3554247e-08 
1 1:2.8031218e-08 2:2.3690269e-08 
1 1:1.8546629e-08 2:2.115395e-08 
1 1:1.5105269e-08 2:2.3706573e-08 
1 1:2.5025659e-08 2:3.6667744e-08 
1 1:2.1447699e-08 2:2.5613006e-08 
1 1:1.8274459e-08 2:2.391054e-08 
1 1:1.3458898e-08 2:2.2588527e-08 
1 1:1.4663349e-08 2:2.4390583e-08 
1 1:1.7435463e-08 2:2.3817405e-08 
1 1:1.2199879e-08 2:2.1126871e-08 
1 1:1.2019659e-08 2:1.9396636e-08 
1 1:2.0923537e-08 2:2.4715244e-08 
1 1:3.5333068e-08 2:2.4805825e-08 
1 1:2.910788e-08 2:2.6768294e-08 
1 1:4.6933091e-08 2:3.2981906e-08 
1 1:5.2534993e-08 2:3.635346e-08 
1 1:4.7975449e-08 2:3.3619384e-08 
1 1:6.441901e-08 2:3.5656124e-08 
1 1:4.3473465e-08 2:3.2835831e-08 
1 1:9.1470239e-07 2:1.0372273e-06 
1 1:9.3184595e-07 2:1.0840228e-06 
1 1:1.148451e-06 2:1.162731e-06 
1 1:6.9873566e-08 2:4.6163793e-08 
1 1:5.9020466e-08 2:4.0093478e-08 
1 1:6.7249299e-08 2:3.6510339e-08 
1 1:2.534312e-08 2:1.7546105e-08 
1 1:1.5312647e-08 2:1.6070733e-08 
1 1:2.6061348e-08 2:2.0045851e-08 
1 1:5.1456489e-06 2:4.8355214e-06 
1 1:7.6069608e-06 2:6.7343138e-06 
1 1:7.5789341e-06 2:6.845704e-06 
1 1:7.5871229e-06 2:6.8428415e-06 
1 1:7.6008976e-06 2:6.8216e-06 
1 1:5.30619e-06 2:4.737858e-06 
1 1:1.6909623e-07 2:3.5300813e-08 
1 1:3.274736e-08 2:1.7141819e-08 
1 1:2.3682218e-08 2:1.7590344e-08 
1 1:2.1517509e-08 2:1.7330359e-08 
1 1:1.9731998e-08 2:1.7548788e-08 
1 1:2.2749325e-08 2:1.4586145e-08 
1 1:1.8582139e-08 2:1.3255451e-08 
1 1:1.2635068e-08 2:1.1170123e-08 
1 1:9.3396647e-09 2:1.2981722e-08 
1 1:2.5045984e-06 2:3.0149257e-06 
1 1:4.4205573e-06 2:4.2735867e-06 
1 1:4.418774e-06 2:4.2749206e-06 
1 1:4.7467964e-08 2:1.2573334e-08 
1 1:9.8498897e-08 2:2.4492634e-08 
1 1:1.2487811e-07 2:3.394235e-08 
1 1:1.6379033e-07 2:4.3913198e-08 
1 1:1.2932581e-07 2:3.2980124e-08 
1 1:8.9757277e-08 2:2.2556687e-08 
1 1:6.7670961e-08 2:1.4620111e-08 
1 1:7.0998737e-08 2:1.3212501e-08 
1 1:6.943308e-08 2:1.4842809e-08 
1 1:6.5375289e-08 2:1.4633624e-08 
1 1:9.1311263e-08 2:1.9364282e-08 
1 1:1.2392999e-07 2:1.8056815e-08 
1 1:1.4061086e-07 2:1.7154781e-08 
1 1:1.2561131e-07 2:2.0939265e-08 
1 1:1.2040721e-07 2:1.6955951e-08 
1 1:1.2850045e-07 2:1.6292594e-08 
1 1:1.2386951e-07 2:2.1755724e-08 
1 1:8.3689119e-08 2:2.3029184e-08 
1 1:7.154888e-08 2:1.7287546e-08 
1 1:7.3893492e-08 2:1.8363948e-08 
1 1:5.4840572e-08 2:1.852366e-08 
1 1:3.8544016e-08 2:1.5930991e-08 
1 1:2.796943e-06 2:2.8915393e-06 
1 1:3.0356984e-06 2:2.9313224e-06 
1 1:3.0515844e-06 2:2.8996175e-06 
1 1:3.0477649e-06 2:2.8839589e-06 
1 1:2.319081e-08 2:1.6853538e-08 
1 1:1.9583355e-08 2:1.6621225e-08 
1 1:1.1631374e-08 2:1.3570995e-08 
1 1:3.0073418e-08 2:2.9770529e-08 
1 1:2.8230646e-08 2:2.7233039e-08 
1 1:2.7500285e-08 2:3.056427e-08 
1 1:2.8464639e-08 2:3.2055159e-08 
1 1:3.2566094e-08 2:3.3121125e-08 
1 1:2.500676e-08 2:2.6002659e-08 
1 1:1.6569779e-08 2:1.6537542e-08 
1 1:1.4365185e-08 2:1.5616208e-08 
1 1:1.5317808e-08 2:1.5782957e-08 
1 1:1.5497079e-08 2:1.5335441e-08 
1 1:2.2138681e-08 2:1.4758894e-08 
1 1:3.2282391e-08 2:1.6082384e-08 
1 1:3.2515172e-08 2:1.4704853e-08 
1 1:3.9254947e-08 2:1.7159539e-08 
1 1:3.7767258e-08 2:1.6027879e-08 
1 1:4.2921423e-08 2:1.684925e-08 
1 1:4.6642013e-08 2:1.8809846e-08 
1 1:3.677908e-08 2:1.8345177e-08 
1 1:2.3379826e-08 2:1.6444287e-08 
1 1:1.6995813e-08 2:1.5434753e-08 
1 1:4.9290398e-08 2:1.9774788e-08 
1 1:5.3866984e-08 2:1.9427997e-08 
1 1:4.9119105e-08 2:1.8478539e-08 
1 1:5.8523657e-08 2:3.1299658e-08 
1 1:3.9858417e-06 2:5.444537e-06 
1 1:7.2671155e-06 2:6.9632137e-06 
1 1:7.2343332e-06 2:7.0407229e-06 
1 1:7.3314269e-06 2:7.2160371e-06 
1 1:7.5259853e-06 2:8.4904295e-06 
1 1:3.8641195e-08 2:1.9829256e-08 
1 1:3.0729006e-08 2:1.412705e-08 
1 1:9.4911944e-05 2:1.8150348e-05 
1 1:8.8952789e-05 2:1.6477805e-05 
1 1:8.6428414e-05 2:1.6928161e-05 
1 1:5.9162767e-06 2:2.1246617e-06 
1 1:6.5298867e-07 2:4.3347075e-07 
1 1:0.00035579927 2:0.00012130352 
1 1:0.0045375637 2:0.0074241585 
1 1:0.0054130541 2:0.0077751984 
1 1:0.0026166147 2:0.006432217 
1 1:0.0063431365 2:0.013219192 
1 1:0.0027996545 2:0.0063113809 
1 1:0.0073055641 2:0.011115082 
1 1:0.0018766307 2:0.0056027684 
1 1:0.00097163528 2:0.00095835963 
1 1:0.0048689112 2:0.0084094754 
1 1:0.0039369112 2:0.0031529775 
1 1:9.0662132e-06 2:8.5510109e-06 
1 1:0.00090233637 2:0.00080388905 
1 1:0.00077793711 2:0.0009888753 
1 1:0.00079191602 2:0.00099129118 
1 1:0.00078934297 2:0.00099042691 
1 1:0.00075237227 2:0.0008364959 
1 1:0.0012461178 2:0.00082164721 
1 1:0.0014154419 2:0.00083545892 
1 1:1.2883057e-05 2:2.7747528e-06 
1 1:3.0047285e-07 2:1.403662e-07 
1 1:2.0823273e-07 2:8.1326325e-08 
1 1:7.7364444e-08 2:5.9321855e-08 
1 1:1.6422632e-07 2:9.8301581e-08 
1 1:1.1322702e-07 2:8.8271824e-08 
1 1:3.8062758e-08 2:6.7810075e-08 
1 1:1.9263207e-07 2:1.0845252e-07 
1 1:9.30908e-08 2:7.4954736e-08 
1 1:4.8540158e-08 2:6.4520191e-08 
1 1:1.8864775e-07 2:9.3428976e-08 
1 1:2.2842929e-07 2:2.6355067e-07 
1 1:5.9854451e-06 2:2.1289393e-06 
1 1:2.6121345e-05 2:8.6764177e-06 
1 1:9.5392408e-06 2:2.4763759e-06 
1 1:1.4537912e-05 2:6.0389932e-06 
1 1:6.4358095e-06 2:1.7275167e-06 
1 1:3.1645734e-05 2:7.0622766e-06 
1 1:3.3103589e-05 2:1.1393904e-05 
1 1:0.00071337389 2:0.00021601577 
1 1:0.003669204 2:0.0013629055 
1 1:0.003828399 2:0.0013715814 
1 1:0.0038266659 2:0.0013695744 
1 1:0.0036488602 2:0.0012068674 
1 1:0.0036488202 2:0.0012073898 
1 1:0.0036436237 2:0.0012076546 
1 1:0.0036205904 2:0.0012064585 
1 1:0.00040368311 2:5.0383154e-05 
1 1:3.3876043e-05 2:1.096397e-05 
1 1:4.0364902e-05 2:1.5148404e-05 
1 1:0.0026786912 2:0.0018538849 
1 1:0.0024188253 2:0.0021958823 
1 1:0.0027109932 2:0.001452776 
1 1:0.0034429351 2:0.0064976461 
1 1:0.0046589607 2:0.0095981428 
1 1:0.006149134 2:0.010771473 
1 1:0.0094180399 2:0.01436091 
1 1:0.0098905936 2:0.015183442 
1 1:0.009235293 2:0.010299256 
1 1:0.011489661 2:0.0099043442 
1 1:0.0032834302 2:0.0027123962 
1 1:0.00029311956 2:0.00015403469 
1 1:0.00053948833 2:0.00039584011 
1 1:0.0011181549 2:0.00072546638 
1 1:0.0014435419 2:0.00095618266 
1 1:0.001593048 2:0.00095027661 
1 1:0.00014764223 2:5.5416573e-05 
1 1:0.00014870147 2:5.6000592e-05 
1 1:0.00012860466 2:4.6107589e-05 
1 1:2.4573403e-05 2:6.7596767e-06 
1 1:1.0309331e-05 2:2.6739185e-06 
1 1:5.9238636e-06 2:1.8602547e-06 
1 1:1.1207465e-05 2:4.1679193e-06 
1 1:0.0005172583 2:0.00018028393 
1 1:0.0010350401 2:0.0008934028 
1 1:0.0025280402 2:0.0026299401 
1 1:0.0032563678 2:0.0017042731 
1 1:0.0021230712 2:0.0026308774 
1 1:0.0021331707 2:0.0026292404 
1 1:0.0021364439 2:0.0026292843 
1 1:0.002115728 2:0.0026211942 
1 1:0.0019428671 2:0.002550548 
1 1:0.001771387 2:0.0023758695 
1 1:0.00060093349 2:0.00051233339 
1 1:0.0010150944 2:0.000672578 
1 1:0.0013919513 2:0.00079518757 
1 1:0.00019584454 2:5.715676e-05 
1 1:6.0346778e-07 2:1.0061175e-06 
1 1:1.2131978e-05 2:8.8995584e-06 
1 1:2.650152e-05 2:1.4318832e-05 
1 1:1.4662852e-05 2:1.0659609e-05 
1 1:4.030719e-05 2:3.9070762e-05 
1 1:3.8580876e-05 2:3.5208173e-05 
1 1:2.2345812e-05 2:2.1984936e-05 
1 1:1.3590532e-05 2:1.0038956e-05 
1 1:5.0177985e-05 2:2.0614994e-05 
1 1:0.0016543881 2:0.00033034333 
1 1:0.0016299166 2:0.00033841663 
1 1:0.0016308633 2:0.00033853828 
1 1:0.0016417043 2:0.00034626053 
1 1:0.0015380673 2:0.00032456641 
1 1:0.00093567289 2:0.0001684468 
1 1:9.2820705e-06 2:1.0991153e-05 
1 1:1.0937389e-05 2:9.5826725e-06 
1 1:1.0949119e-05 2:9.4958959e-06 
1 1:9.8120146e-06 2:5.9419436e-06 
1 1:9.6233488e-06 2:5.9735013e-06 
1 1:7.3005532e-06 2:3.13833e-06 
1 1:1.72469e-06 2:9.2971106e-07 
1 1:6.7693262e-07 2:8.2141612e-07 
1 1:1.0689586e-06 2:4.86239e-07 
1 1:1.3549661e-06 2:9.2060823e-07 
1 1:1.4318177e-06 2:6.7581695e-07 
1 1:1.4012319e-06 2:6.5684865e-07 
1 1:2.4609485e-06 2:1.987162e-06 
1 1:8.3616336e-07 2:3.4832053e-07 
1 1:1.0155071e-06 2:4.6954673e-07 
1 1:4.888426e-07 2:2.2835061e-07 
1 1:4.2150168e-07 2:2.8907904e-07 
1 1:6.0960638e-08 2:7.1832797e-08 
1 1:1.9419468e-06 2:1.0112783e-06 
1 1:6.4642419e-06 2:2.8383489e-06 
1 1:9.4560325e-06 2:2.4260386e-06 
1 1:9.4890432e-06 2:3.8956444e-06 
1 1:3.061544e-06 2:2.8230958e-06 
1 1:7.6885389e-07 2:1.8975388e-06 
1 1:6.4712863e-07 2:1.4245522e-06 
1 1:1.0568219e-06 2:8.6669914e-07 
1 1:7.5230825e-07 2:7.907883e-07 
1 1:7.0051891e-07 2:7.3356895e-07 
1 1:4.3588933e-07 2:4.747007e-07 
1 1:4.4966015e-07 2:3.8028698e-07 
1 1:4.6165677e-07 2:2.1500614e-07 
1 1:4.5416354e-07 2:1.9777803e-07 
1 1:9.7692578e-07 2:7.8052183e-07 
1 1:1.1863117e-06 2:8.7111739e-07 
1 1:3.4544264e-06 2:7.7950749e-07 
1 1:2.2998659e-07 2:8.0842202e-08 
1 1:3.7273166e-07 2:1.4713681e-07 
1 1:4.7101272e-07 2:1.6265546e-07 
1 1:5.0736506e-07 2:1.5629885e-07 
1 1:4.3701711e-07 2:1.8091228e-07 
1 1:3.471817e-07 2:2.4171781e-07 
1 1:3.482014e-07 2:1.1917355e-07 
1 1:3.4731919e-07 2:1.2454384e-07 
1 1:1.9789558e-07 2:9.8621666e-08 
1 1:1.1085163e-07 2:7.9105276e-08 
1 1:1.9078413e-07 2:1.0398463e-07 
1 1:2.2957708e-07 2:1.0251664e-07 
1 1:3.2147298e-07 2:1.3314298e-07 
1 1:2.8238235e-07 2:1.2981038e-07 
1 1:2.511278e-05 2:2.327539e-05 
1 1:2.5565428e-05 2:2.3611433e-05 
1 1:2.6341803e-05 2:2.4227264e-05 
1 1:2.2929999e-07 2:1.0133271e-07 
1 1:2.5135053e-07 2:1.1537388e-07 
1 1:3.2219419e-07 2:2.5823652e-07 
1 1:2.8813073e-07 2:3.1151847e-07 
1 1:4.9312131e-07 2:5.5189171e-07 
1 1:1.3685817e-07 2:3.0099824e-07 
1 1:5.0474994e-07 2:4.7287839e-07 
1 1:3.671004e-07 2:4.2133235e-07 
1 1:2.6216911e-07 2:1.0024416e-07 
1 1:2.21126e-05 2:1.9529789e-05 
1 1:3.4355422e-05 2:3.0498542e-05 
1 1:2.4372324e-05 2:2.233346e-05 
1 1:2.5627863e-05 2:2.40474e-05 
1 1:2.456261e-05 2:2.2528604e-05 
1 1:1.0116177e-06 2:4.6534082e-07 
1 1:5.529225e-06 2:4.8983599e-07 
1 1:1.1528061e-05 2:6.9642305e-06 
1 1:1.1379381e-05 2:9.7104604e-06 
1 1:1.010175e-05 2:6.4934341e-07 
1 1:6.9753313e-06 2:2.4006344e-06 
1 1:3.4029027e-06 2:3.2413379e-07 
1 1:3.6449115e-06 2:1.3221504e-06 
1 1:2.2363324e-06 2:2.6738017e-07 
1 1:1.7735497e-06 2:2.3263945e-07 
1 1:1.2428404e-06 2:1.4697052e-06 
1 1:2.4868254e-07 2:1.0158296e-07 
1 1:3.5248138e-07 2:1.2413872e-07 
1 1:7.8542099e-07 2:1.9001249e-07 
1 1:2.8110077e-06 2:1.075271e-07 
1 1:1.3265252e-06 2:8.0554492e-07 
1 1:4.3620415e-07 2:8.3242465e-08 
1 1:1.9292977e-07 2:8.0915061e-08 
1 1:1.6221081e-07 2:8.0045572e-08 
1 1:3.2413118e-07 2:1.282375e-07 
1 1:4.1459701e-07 2:1.4383007e-07 
1 1:4.615184e-07 2:1.3602774e-07 
1 1:2.9704337e-07 2:1.3991795e-07 
1 1:2.5090741e-07 2:1.2324786e-07 
1 1:3.5404305e-07 2:1.9888901e-07 
1 1:3.2957652e-07 2:1.3386866e-07 
1 1:2.1730362e-07 2:9.2732878e-08 
1 1:4.5085157e-07 2:1.4077163e-07 
1 1:3.9651337e-07 2:1.2931938e-07 
1 1:1.6617533e-05 2:1.5743737e-05 
1 1:2.3456585e-05 2:2.1779072e-05 
1 1:2.2950706e-05 2:2.1435332e-05 
1 1:2.338641e-05 2:2.193316e-05 
1 1:2.4279371e-05 2:2.286083e-05 
1 1:1.6995236e-05 2:1.3706409e-05 
1 1:8.6665534e-08 2:4.8128869e-08 
1 1:1.9636157e-07 2:7.0971978e-08 
1 1:4.2607738e-07 2:4.7321415e-07 
1 1:2.5823738e-06 2:2.2789113e-06 
1 1:2.5910386e-06 2:3.5080978e-06 
1 1:1.9523372e-06 2:1.1573183e-06 
1 1:1.5340751e-06 2:1.4723684e-06 
1 1:3.8135288e-07 2:7.3755975e-08 
1 1:1.2889747e-07 2:4.9415772e-08 
1 1:5.5292187e-07 2:5.5791907e-07 
1 1:2.1458322e-07 2:6.6368198e-08 
1 1:2.2257964e-07 2:7.4049036e-08 
1 1:1.2178086e-07 2:5.8279934e-08 
1 1:2.3037429e-07 2:7.0142145e-08 
1 1:1.9712859e-06 2:1.4965943e-06 
1 1:7.8338753e-07 2:2.6277731e-07 
1 1:2.0504722e-06 2:1.6201481e-06 
1 1:4.9548597e-07 2:1.0276557e-07 
1 1:1.1987854e-06 2:8.1410688e-07 
1 1:4.5790727e-07 2:7.811544e-08 
1 1:4.6472098e-07 2:3.6181371e-07 
1 1:1.4551682e-07 2:6.465772e-08 
1 1:1.260095e-07 2:5.7394233e-08 
1 1:1.1986091e-07 2:4.7040206e-08 
1 1:3.0465704e-07 2:1.9136369e-07 
1 1:1.8079533e-07 2:7.4826929e-08 
1 1:3.3429352e-07 2:5.0480244e-07 
1 1:5.2286584e-07 2:1.0306305e-07 
1 1:2.4491735e-05 2:2.3735172e-05 
1 1:2.5058135e-05 2:2.3548587e-05 
1 1:3.4186119e-05 2:3.124652e-05 
1 1:3.5750625e-05 2:3.2709539e-05 
1 1:2.3930162e-05 2:2.244358e-05 
1 1:2.3594411e-05 2:2.1001938e-05 
1 1:1.3057973e-07 2:6.2621621e-08 
1 1:1.1172705e-07 2:5.6130876e-08 
1 1:1.5473164e-07 2:6.7970363e-08 
1 1:1.4780003e-07 2:8.1357794e-08 
1 1:1.0651131e-07 2:5.6724947e-08 
1 1:1.2658257e-07 2:5.3928016e-08 
1 1:9.2545884e-08 2:4.2922036e-08 
1 1:1.6024482e-07 2:6.1602798e-08 
1 1:1.6850262e-07 2:6.4958615e-08 
1 1:1.1551249e-07 2:4.913735e-08 
1 1:7.0416186e-08 2:5.7849354e-08 
1 1:2.3916012e-07 2:8.2180569e-08 
1 1:2.368279e-07 2:8.7540939e-08 
1 1:1.9011327e-07 2:6.878667e-08 
1 1:1.2723356e-07 2:6.1586651e-08 
1 1:1.3581937e-07 2:5.476414e-08 
1 1:8.673274e-08 2:4.1548437e-08 
1 1:1.0716261e-07 2:5.0186561e-08 
1 1:1.0926178e-07 2:4.6709321e-08 
1 1:1.1178205e-07 2:4.795571e-08 
1 1:1.9464507e-07 2:1.2444247e-07 
1 1:1.1690246e-05 2:4.3104463e-06 
1 1:1.160039e-05 2:8.8078126e-06 
1 1:1.0946202e-05 2:8.3089632e-06 
1 1:1.3765702e-05 2:8.6971087e-06 
1 1:1.3987608e-05 2:9.0504031e-06 
1 1:1.5042237e-05 2:9.9876964e-06 
1 1:5.6241783e-05 2:4.35903e-05 
1 1:2.6703958e-05 2:2.3280828e-05 
1 1:2.3435541e-05 2:2.1729477e-05 
1 1:2.2412978e-05 2:2.1244075e-05 
1 1:1.2193954e-07 2:4.9361345e-08 
1 1:1.5230254e-07 2:6.8920257e-08 
1 1:1.5184295e-07 2:5.2120432e-08 
1 1:1.2683672e-07 2:4.7855978e-08 
1 1:1.6452613e-07 2:8.1106515e-08 
1 1:6.9870516e-08 2:3.8653011e-08 
1 1:1.0959346e-07 2:4.6740953e-08 
1 1:1.0827814e-07 2:4.812163e-08 
1 1:1.0206047e-07 2:4.2628681e-08 
1 1:6.1848395e-08 2:3.8192246e-08 
1 1:1.5947928e-07 2:5.5883293e-08 
1 1:1.8535545e-07 2:6.0921968e-08 
1 1:1.5516155e-07 2:5.2915099e-08 
1 1:1.1769658e-07 2:4.2326984e-08 
1 1:1.0744895e-07 2:4.2079038e-08 
1 1:1.3167686e-07 2:4.6254616e-08 
1 1:1.2475855e-07 2:4.583423e-08 
1 1:1.4193748e-07 2:6.6712291e-08 
1 1:2.0233438e-07 2:8.2828431e-08 
1 1:4.0779082e-06 2:1.2487969e-06 
1 1:2.6212592e-06 2:3.2282008e-07 
1 1:1.750353e-06 2:1.9093811e-07 
1 1:8.3165011e-07 2:1.2307627e-07 
-1 1:0.0021338572 2:0.0036106303 
-1 1:0.0020555764 2:0.0037571911 
-1 1:0.0001038815 2:0.00011427976 
-1 1:3.8195346e-05 2:7.3267262e-06 
-1 1:0.00017948341 2:3.8931725e-05 
-1 1:6.8093718e-05 2:1.632723e-05 
-1 1:0.00046945985 2:0.00055913897 
-1 1:0.0012646579 2:0.0026307583 
-1 1:0.00013162268 2:3.5753014e-05 
-1 1:0.00010515435 2:6.4343377e-05 
-1 1:0.00017667968 2:5.550889e-05 
-1 1:0.00068474834 2:0.00086862023 
-1 1:4.8241236e-06 2:2.266114e-06 
-1 1:3.684553e-05 2:1.126948e-05 
-1 1:3.106409e-05 2:6.9981895e-06 
-1 1:0.00020367308 2:5.4172779e-05 
-1 1:4.8145806e-05 2:1.4129934e-05 
-1 1:0.00013043288 2:1.6396586e-05 
-1 1:0.00040852153 2:0.00010767319 
-1 1:0.00091215307 2:0.0010624886 
-1 1:3.6079952e-05 2:2.006942e-05 
-1 1:0.00017964957 2:5.4559861e-05 
-1 1:0.00029527033 2:0.00028802549 
-1 1:0.00014058612 2:0.00029251917 
-1 1:0.00022648409 2:0.0003159667 
-1 1:6.4125437e-05 2:1.5470658e-05 
-1 1:0.00021907815 2:5.5852707e-05 
-1 1:0.00012199056 2:2.7910279e-05 
-1 1:0.00016311084 2:0.00012785762 
-1 1:0.0001121572 2:0.00012169948 
-1 1:0.00014540873 2:4.1089939e-05 
-1 1:0.00017539445 2:4.5542976e-05 
-1 1:0.00017573713 2:4.4710077e-05 
-1 1:0.00018236015 2:5.0239531e-05 
-1 1:0.00015859316 2:4.332687e-05 
-1 1:0.00040722786 2:0.00011147967 
-1 1:0.00011766246 2:3.1495496e-05 
-1 1:0.00018155088 2:5.024386e-05 
-1 1:0.00024600376 2:0.0012652884 
-1 1:0.00025308385 2:0.0012654105 
-1 1:0.00051011739 2:0.0013412617 
-1 1:2.1477448e-05 2:6.8758682e-06 
-1 1:0.00040564776 2:0.00027069255 
-1 1:0.00015369563 2:8.3356136e-05 
-1 1:0.00046143499 2:0.00020375307 
-1 1:3.9649076e-05 2:2.6320778e-05 
-1 1:0.00010161505 2:4.2358959e-05 
-1 1:0.00017723293 2:6.8420679e-05 
-1 1:0.00018642359 2:6.3404691e-05 
-1 1:0.00016081851 2:4.8803538e-05 
-1 1:0.0001333049 2:4.2130017e-05 
-1 1:4.3549817e-05 2:2.4064525e-05 
-1 1:7.7351802e-05 2:5.9690209e-05 
-1 1:0.00015546602 2:4.528822e-05 
-1 1:7.0049665e-05 2:1.6487272e-05 
-1 1:3.2158645e-05 2:1.4305322e-05 
-1 1:0.00022892916 2:5.992677e-05 
-1 1:1.5577067e-05 2:5.8689495e-06 
-1 1:0.00015136556 2:4.3933759e-05 
-1 1:0.00015911304 2:4.666071e-05 
-1 1:1.0940911e-05 2:4.7653258e-06 
-1 1:0.00020494438 2:5.3501373e-05 
-1 1:0.00013322359 2:3.5724851e-05 
-1 1:4.2019734e-05 2:1.2775348e-05 
-1 1:0.00016286055 2:4.270672e-05 
-1 1:0.00010601144 2:2.8776072e-05 
-1 1:7.9657908e-05 2:7.5649846e-05 
-1 1:7.9401708e-05 2:2.2245131e-05 
-1 1:0.00014399613 2:0.00037826476 
-1 1:5.1690525e-06 2:1.478144e-05 
-1 1:0.00015582562 2:4.5966748e-05 
-1 1:0.00015168814 2:4.1437304e-05 
-1 1:2.9581891e-05 2:9.2948319e-06 
-1 1:4.8022415e-05 2:3.6456086e-05 
-1 1:0.00010194372 2:2.7289027e-05 
-1 1:9.7529765e-05 2:4.2202829e-05 
-1 1:0.00023513169 2:0.00029169635 
-1 1:0.00010437741 2:0.00026287987 
-1 1:0.00028819241 2:0.00031056049 
-1 1:9.388257e-05 2:3.8440244e-05 
-1 1:8.9255502e-05 2:4.4253665e-05 
-1 1:7.3280919e-05 2:5.0013119e-05 
-1 1:0.00015590227 2:0.00037448392 
-1 1:5.259426e-05 2:1.4226507e-05 
-1 1:0.00010540326 2:2.8171176e-05 
-1 1:6.7225594e-05 2:1.6461763e-05 
-1 1:0.00018087335 2:0.00036537195 
-1 1:0.00014180969 2:0.00035311545 
-1 1:0.0001603647 2:0.0003189323 
-1 1:0.00016429919 2:0.00016955744 
-1 1:0.00042585098 2:0.00023173088 
-1 1:0.00015756096 2:0.00010885743 
-1 1:0.00016911092 2:9.8360077e-05 
-1 1:0.00014683791 2:4.2409835e-05 
-1 1:0.00013959929 2:5.1694459e-05 
-1 1:0.00038848146 2:0.0001659098 
-1 1:0.00015731717 2:6.6846015e-05 
-1 1:0.00021802814 2:7.2618306e-05 
-1 1:0.00021594526 2:0.00011149774 
-1 1:0.0003915275 2:0.00015491234 
-1 1:0.00016020355 2:0.00010033398 
-1 1:1.2390809e-05 2:6.3691445e-06 
-1 1:1.6207161e-05 2:6.0944598e-06 
-1 1:6.2855029e-05 2:1.758988e-05 
-1 1:0.00031910233 2:0.00025156266 
-1 1:3.9909895e-05 2:0.00015457241 
-1 1:0.00018438155 2:5.3593311e-05 
-1 1:9.324264e-05 2:7.3583724e-05 
-1 1:0.00013911502 2:4.3038333e-05 
-1 1:0.00017909942 2:8.0525484e-05 
-1 1:0.00012519611 2:7.6224501e-05 
-1 1:0.00017971315 2:4.6791631e-05 
-1 1:9.255373e-05 2:0.00018334671 
-1 1:0.00014291237 2:0.00019673872 
-1 1:0.0020209295 2:0.0090829489 
-1 1:0.0021448616 2:0.009322757 
-1 1:0.00011208909 2:5.2592952e-05 
-1 1:0.00010512834 2:4.5881146e-05 
-1 1:0.00011731546 2:3.4699392e-05 
-1 1:0.00013079293 2:5.0709568e-05 
-1 1:0.00010882857 2:4.3911822e-05 
-1 1:0.00011206805 2:3.7814311e-05 
-1 1:0.00015972041 2:4.1243941e-05 
-1 1:0.00054830328 2:0.00096745465 
-1 1:0.00013653757 2:0.00010971539 
-1 1:9.4730004e-05 2:4.0156019e-05 
-1 1:0.00012010148 2:4.8055425e-05 
-1 1:4.9634143e-05 2:1.5963055e-05 
-1 1:0.00017496154 2:4.4630488e-05 
-1 1:7.6191042e-07 2:4.1523982e-06 
-1 1:9.6423399e-05 2:2.4569537e-05 
-1 1:7.0754972e-05 2:2.2345461e-05 
-1 1:7.5650451e-05 2:2.1560165e-05 
-1 1:5.9636788e-05 2:3.768456e-05 
-1 1:0.00074367183 2:0.0015976649 
-1 1:9.6807443e-05 2:5.4169363e-05 
-1 1:3.4738351e-05 2:1.0264271e-05 
-1 1:0.00015563794 2:4.1136346e-05 
-1 1:0.00023541038 2:6.0185379e-05 
-1 1:2.5595362e-05 2:7.8628517e-06 
-1 1:5.2904913e-05 2:1.2043283e-05 
-1 1:9.7663483e-05 2:2.4839701e-05 
-1 1:8.1202848e-05 2:2.4289665e-05 
-1 1:7.1379864e-05 2:2.201014e-05 
-1 1:5.043994e-05 2:1.3726818e-05 
-1 1:1.1416376e-05 2:1.2438747e-05 
-1 1:0.00016653247 2:6.1534461e-05 
-1 1:8.1500135e-05 2:2.5808473e-05 
-1 1:6.963043e-05 2:2.3142643e-05 
-1 1:4.5321953e-05 2:1.5951533e-05 
-1 1:9.9493137e-05 2:3.6024622e-05 
-1 1:5.262054e-05 2:1.6044843e-05 
-1 1:3.8515089e-05 2:1.0389066e-05 
-1 1:5.0895369e-05 2:1.3698984e-05 
-1 1:0.00011339971 2:3.5097636e-05 
-1 1:0.00022840844 2:6.0260566e-05 
-1 1:5.2769138e-05 2:1.589278e-05 
-1 1:4.5026183e-05 2:1.0870273e-05 
-1 1:5.5901559e-05 2:0.00016851896 
-1 1:8.6843357e-05 2:0.00017428616 
-1 1:1.7931456e-05 2:0.0001559892 
-1 1:0.00012971732 2:0.00018304524 
-1 1:0.00021686182 2:6.1701793e-05 
-1 1:3.7509475e-05 2:1.3851334e-05 
-1 1:0.00022904147 2:5.8500165e-05 
-1 1:9.5491241e-05 2:3.8142947e-05 
-1 1:9.5057769e-05 2:3.7576826e-05 
-1 1:8.649839e-05 2:4.1199954e-05 
-1 1:0.00021051944 2:5.8578181e-05 
-1 1:3.9279033e-05 2:1.0059115e-05 
-1 1:0.00055681899 2:0.001017019 
-1 1:0.00010475892 2:4.4962278e-05 
-1 1:0.00054565591 2:0.00097123886 
-1 1:0.00013961165 2:4.1603213e-05 
-1 1:5.5717998e-05 2:1.5520628e-05 
-1 1:0.00038575715 2:0.00092123196 
-1 1:0.00015724017 2:0.00012145794 
-1 1:0.00018001957 2:9.4270268e-05 
-1 1:0.00055973703 2:0.0013715899 
-1 1:0.00013908062 2:0.00011364403 
-1 1:0.00012568976 2:3.757542e-05 
-1 1:0.00011234079 2:4.0477869e-05 
-1 1:8.0095058e-05 2:2.7424606e-05 
-1 1:0.00017689646 2:5.625268e-05 
-1 1:0.00012059766 2:4.4102011e-05 
-1 1:6.2818801e-05 2:1.6590465e-05 
-1 1:0.00017013011 2:5.0971275e-05 
-1 1:5.3351322e-05 2:1.5825723e-05 
-1 1:9.5244178e-05 2:3.0006478e-05 
-1 1:4.2595857e-05 2:3.2076358e-05 
-1 1:0.00015002305 2:0.00010418909 
-1 1:0.00017463025 2:9.154832e-05 
-1 1:0.00022180272 2:9.4491007e-05 
-1 1:9.9304042e-05 2:7.8639411e-05 
-1 1:8.8680372e-05 2:2.6672821e-05 
-1 1:7.5767685e-05 2:2.2206571e-05 
-1 1:5.5704001e-05 2:1.60196e-05 
-1 1:4.3211715e-05 2:1.6644412e-05 
-1 1:0.00012935534 2:3.4450983e-05 
-1 1:0.00016390217 2:3.7396416e-05 
-1 1:0.00014394454 2:3.8773342e-05 
-1 1:9.8121157e-05 2:2.8519324e-05 
-1 1:7.8632581e-05 2:2.3233764e-05 
-1 1:0.00014327607 2:3.788407e-05 
-1 1:0.00023268544 2:5.9822224e-05 
-1 1:0.00021735987 2:7.9002668e-05 
-1 1:8.5372225e-05 2:2.3334322e-05 
-1 1:9.3191874e-05 2:2.0521384e-05 
-1 1:0.00011477734 2:3.0475865e-05 
-1 1:0.00010594419 2:3.4619443e-05 
-1 1:0.00016336691 2:4.9894773e-05 
-1 1:0.00015789116 2:7.1704001e-05 
-1 1:9.9630081e-05 2:0.00018923067 
-1 1:0.00075183912 2:0.0032542219 
-1 1:0.00018941966 2:0.00011323225 
-1 1:0.00012796371 2:7.9634325e-05 
-1 1:0.00012923827 2:9.4785896e-05 
-1 1:0.0005390859 2:0.00090420911 
-1 1:9.0701283e-05 2:2.4295186e-05 
-1 1:0.00011850954 2:3.3641191e-05 
-1 1:0.00013631261 2:3.7254866e-05 
-1 1:0.00011664182 2:3.1588419e-05 
-1 1:0.00023089931 2:5.9617272e-05 
-1 1:0.00013852967 2:3.7213656e-05 
-1 1:0.00013414542 2:3.5189954e-05 
-1 1:8.4138984e-05 2:2.1870799e-05 
-1 1:9.7891781e-05 2:2.6547512e-05 
-1 1:0.00017339394 2:4.5367797e-05 
-1 1:0.00012874285 2:7.1356235e-05 
-1 1:8.0004204e-05 2:4.0207451e-05 
-1 1:0.00013478309 2:3.5660094e-05 
-1 1:0.00013681634 2:3.9133139e-05 
-1 1:0.00021054079 2:5.5538568e-05 
-1 1:0.00013065863 2:3.2264014e-05 
-1 1:0.00012829578 2:3.414237e-05 
-1 1:0.00010943814 2:2.9036935e-05 
-1 1:6.6954507e-05 2:1.7538689e-05 
-1 1:0.00011590602 2:2.9640045e-05 
-1 1:1.7444024e-05 2:5.173014e-06 
-1 1:2.8495888e-05 2:7.0176432e-06 
-1 1:0.00012531218 2:3.2226902e-05 
-1 1:0.00013671173 2:3.7463656e-05 
-1 1:0.00011244031 2:3.8036216e-05 
-1 1:0.00036026737 2:0.00072126788 
-1 1:0.00013578482 2:3.6611487e-05 
-1 1:9.9276765e-05 2:2.6906671e-05 
-1 1:0.00012386303 2:4.0777794e-05 
-1 1:9.4573649e-05 2:2.5311755e-05 
-1 1:0.0001127945 2:2.9721371e-05 
-1 1:8.1827523e-05 2:3.435226e-05 
-1 1:0.00014324091 2:4.1987889e-05 
-1 1:0.00013207132 2:3.4351291e-05 
-1 1:8.7680229e-05 2:2.3099847e-05 
-1 1:0.00037030468 2:0.0006289839 
-1 1:0.00059997075 2:0.0014928565 
-1 1:0.00067747368 2:0.0014481422 
-1 1:0.00014541314 2:5.3334879e-05 
-1 1:8.1388388e-05 2:2.0854401e-05 
-1 1:0.00015911472 2:4.43968e-05 
-1 1:0.00010313592 2:2.5917661e-05 
-1 1:0.00013966446 2:3.6380396e-05 
-1 1:9.1844636e-05 2:2.4789483e-05 
-1 1:0.0001885528 2:5.2110858e-05 
-1 1:6.9749622e-05 2:1.8420145e-05 
-1 1:0.00017754501 2:5.2621589e-05 
-1 1:5.6888181e-05 2:1.3975946e-05 
-1 1:0.00016343642 2:4.8019068e-05 
-1 1:0.00016649653 2:4.5566163e-05 
-1 1:8.0752236e-05 2:4.9740116e-05 
-1 1:0.00015996184 2:4.7316175e-05 
-1 1:7.1378367e-05 2:2.392175e-05 
-1 1:0.00013677019 2:3.9365075e-05 
-1 1:4.3507474e-05 2:2.2678509e-05 
-1 1:7.3149149e-05 2:3.4725837e-05 
-1 1:0.00047946668 2:0.0010641905 
-1 1:0.00022161981 2:5.7601253e-05 
-1 1:0.00020113415 2:5.2716224e-05 
-1 1:9.0885319e-05 2:2.2999393e-05 
-1 1:1.1990917e-06 2:1.3898862e-06 
-1 1:0.00013417382 2:3.6418879e-05 
-1 1:0.00013553626 2:3.8515428e-05 
-1 1:0.00015327198 2:4.0685698e-05 
-1 1:0.00019758074 2:5.2243866e-05 
-1 1:0.00018179589 2:4.7429757e-05 
-1 1:5.0258811e-05 2:1.5380969e-05 
-1 1:0.00013592181 2:3.7778516e-05 
-1 1:0.00011014047 2:2.7481493e-05 
-1 1:2.4318223e-05 2:6.4434758e-06 
-1 1:0.0001162347 2:7.0256787e-05 
-1 1:0.00020028918 2:0.00036932987 
-1 1:0.00028993648 2:0.00095512953 
-1 1:0.00090442199 2:0.0027862074 
-1 1:0.00091000254 2:0.0027855637 
-1 1:0.0001694338 2:4.4616163e-05 
-1 1:0.00011208064 2:3.5922989e-05 
-1 1:7.7878746e-05 2:2.208629e-05 
-1 1:8.8623641e-05 2:2.5014569e-05 
-1 1:0.00017640867 2:9.3952059e-05 
-1 1:0.00014110899 2:3.6299827e-05 
-1 1:0.0001611487 2:4.2659288e-05 
-1 1:0.00011453346 2:3.7419938e-05 
-1 1:8.6391068e-05 2:2.4657585e-05 
-1 1:0.00012724564 2:3.4208249e-05 
-1 1:9.4306542e-05 2:2.6448609e-05 
-1 1:6.9962463e-05 2:2.9646828e-05 
-1 1:7.6270529e-05 2:3.5186011e-05 
-1 1:0.00021037299 2:5.4980429e-05 
-1 1:0.00016480447 2:4.3004211e-05 
-1 1:5.5684973e-05 2:1.4494727e-05 
-1 1:3.2006281e-05 2:1.3074806e-05 
-1 1:0.00013165985 2:3.494783e-05 
-1 1:7.6218212e-06 2:2.7996717e-06 
-1 1:0.00020728999 2:5.4111491e-05 
-1 1:0.00022126846 2:5.7950847e-05 
-1 1:1.5545601e-05 2:4.6732246e-06 
-1 1:2.376307e-05 2:6.2553775e-06 
-1 1:0.00011761211 2:3.0233948e-05 
-1 1:9.1233542e-05 2:2.3054544e-05 
-1 1:0.00010735544 2:5.5508029e-05 
-1 1:5.331811e-05 2:2.9606065e-05 
-1 1:0.00010037039 2:5.4529515e-05 
-1 1:0.00013799517 2:3.8688462e-05 
-1 1:0.00013576171 2:3.8035907e-05 
-1 1:6.7794463e-06 2:2.5134868e-06 
-1 1:9.8584343e-05 2:2.6490797e-05 
-1 1:0.00021734544 2:5.6455966e-05 
-1 1:0.00019326743 2:0.00026822903 
-1 1:0.00016744114 2:0.00026995488 
-1 1:0.00020199032 2:0.00028685325 
-1 1:0.00010734584 2:3.5407361e-05 
-1 1:7.2465086e-05 2:3.7307721e-05 
-1 1:0.00011665437 2:2.094004e-05 
-1 1:0.00021344508 2:5.5960402e-05 
-1 1:0.00014483268 2:3.8257262e-05 
-1 1:5.7487587e-05 2:1.7173324e-05 
-1 1:0.00090741634 2:0.0011752395 
-1 1:0.00020613407 2:8.4107747e-05 
-1 1:8.0264272e-05 2:2.1459748e-05 
-1 1:0.00018261247 2:4.8164052e-05 
-1 1:0.00021356497 2:5.5858671e-05 
-1 1:0.00017339124 2:4.4750805e-05 
-1 1:0.00012255884 2:3.1847535e-05 
-1 1:0.00013608361 2:3.6326758e-05 
-1 1:0.00013488229 2:3.6879155e-05 
-1 1:0.00012898404 2:3.4534318e-05 
-1 1:4.6509171e-05 2:2.8683443e-05 
-1 1:7.6885143e-05 2:2.594569e-05 
-1 1:4.6889617e-05 2:1.3975273e-05 
-1 1:7.3289208e-05 2:2.2128362e-05 
-1 1:0.00010562789 2:2.82405e-05 
-1 1:0.00013450495 2:3.7137196e-05 
-1 1:0.00013623053 2:3.813856e-05 
-1 1:0.00012867359 2:3.5096043e-05 
-1 1:8.6807553e-05 2:2.3525054e-05 
-1 1:4.2510906e-05 2:1.6963326e-05 
-1 1:4.1994468e-05 2:1.5718914e-05 
-1 1:8.1085096e-05 2:6.0262928e-05 
-1 1:0.0002177805 2:5.213498e-05 
-1 1:5.7657179e-05 2:1.5195823e-05 
-1 1:0.00010907294 2:2.8523413e-05 
-1 1:0.00017429958 2:4.4998696e-05 
-1 1:0.00010071067 2:2.9081071e-05 
-1 1:8.4687534e-05 2:2.4202801e-05 
-1 1:0.00013997893 2:3.834016e-05 
-1 1:0.00010159365 2:2.873861e-05 
-1 1:5.8598442e-05 2:1.584113e-05 
-1 1:8.7587897e-05 2:2.9807994e-05 
-1 1:0.00017679708 2:4.638118e-05 
-1 1:0.00018755714 2:4.8656855e-05 
-1 1:8.5813697e-05 2:2.3488918e-05 
-1 1:0.00013482888 2:3.5567077e-05 
-1 1:0.00013394589 2:3.5545035e-05 
-1 1:0.0001373781 2:3.6120436e-05 
-1 1:9.2260405e-05 2:2.4620716e-05 
-1 1:5.0417883e-05 2:1.4558396e-05 
-1 1:0.00013983484 2:3.6946702e-05 
-1 1:0.00018836597 2:4.9333119e-05 
-1 1:0.00018921448 2:4.9171409e-05 
-1 1:7.4681784e-05 2:1.9483607e-05 
-1 1:0.00013493874 2:3.714007e-05 
-1 1:0.00012317636 2:3.2452765e-05 
-1 1:7.9261965e-05 2:2.0533875e-05 
-1 1:6.0409701e-05 2:4.1178522e-05 
-1 1:0.0001215 2:3.2614691e-05 
-1 1:0.0002010843 2:5.2792296e-05 
-1 1:4.8024578e-05 2:1.2674465e-05 
-1 1:8.4253701e-06 2:3.3731989e-06 
-1 1:8.4906913e-05 2:2.1510088e-05 
-1 1:0.00013523849 2:3.6132647e-05 
-1 1:0.00013724464 2:3.7973842e-05 
-1 1:0.00011286176 2:2.8829087e-05 
-1 1:2.9155104e-05 2:7.0911242e-06 
-1 1:1.3658908e-05 2:5.0479577e-06 
-1 1:0.00018651886 2:4.9184686e-05 
-1 1:8.4909876e-05 2:2.1776985e-05 
-1 1:0.00013580987 2:3.7491695e-05 
-1 1:0.00013508965 2:3.7597488e-05 
-1 1:0.00012167346 2:3.3549999e-05 
-1 1:0.00010368912 2:2.745288e-05 
-1 1:0.00018150361 2:4.7612138e-05 
-1 1:0.00011937468 2:6.2804156e-05 
-1 1:8.2611142e-05 2:3.5808411e-05 
-1 1:0.00011274745 2:5.0863614e-05 
-1 1:0.00011257742 2:4.5980705e-05 
-1 1:0.00013924127 2:8.7073462e-05 
-1 1:9.230564e-05 2:2.3859944e-05 
-1 1:6.6142229e-05 2:1.6157001e-05 
-1 1:0.00013338774 2:3.5134009e-05 
-1 1:0.00013591358 2:3.8190032e-05 
-1 1:8.3301269e-05 2:2.1921747e-05 
-1 1:3.8504196e-05 2:1.0907744e-05 
-1 1:0.00017873755 2:4.6325361e-05 
-1 1:0.0001096133 2:2.8856274e-05 
-1 1:0.00011737147 2:3.1895652e-05 
-1 1:8.0762838e-05 2:2.2944482e-05 
-1 1:8.0505233e-05 2:2.2162856e-05 
-1 1:9.6154809e-05 2:3.9848315e-05 
-1 1:0.00010810169 2:4.3556036e-05 
-1 1:0.00012725583 2:3.306375e-05 
-1 1:7.8691261e-05 2:2.1733891e-05 
-1 1:0.00010714339 2:5.7670404e-05 
-1 1:9.7687624e-05 2:2.707437e-05 
-1 1:0.00010456385 2:3.7317436e-05 
-1 1:9.7303839e-05 2:4.3805911e-05 
-1 1:0.00012879764 2:3.4901162e-05 
-1 1:7.2803586e-05 2:2.0833958e-05 
-1 1:7.1256084e-05 2:2.1445932e-05 
-1 1:9.0633317e-05 2:2.4061856e-05 
-1 1:0.00015655214 2:4.0592743e-05 
-1 1:0.00017175552 2:4.4542161e-05 
-1 1:6.6444517e-05 2:1.7831605e-05 
-1 1:5.4875451e-05 2:1.4159812e-05 
-1 1:2.4913245e-05 2:1.0332762e-05 
-1 1:0.00010501439 2:2.7788636e-05 
-1 1:0.00021234946 2:5.536787e-05 
-1 1:1.4756627e-05 2:4.2415328e-06 
-1 1:2.9349813e-05 2:7.1192203e-06 
-1 1:0.00012422462 2:3.1988456e-05 
-1 1:0.00013621723 2:3.8539896e-05 
-1 1:9.2714564e-05 2:1.8093787e-05 
-1 1:0.00018055491 2:6.675264e-05 
-1 1:0.00013284247 2:8.0625078e-05 
-1 1:8.2423817e-05 2:2.1969191e-05 
-1 1:0.0001260785 2:3.3808646e-05 
-1 1:0.00013668197 2:3.831342e-05 
-1 1:7.424498e-05 2:2.2889873e-05 
-1 1:4.1042388e-05 2:1.1848012e-05 
-1 1:0.00014389163 2:3.8763195e-05 
-1 1:4.6090466e-05 2:1.3527069e-05 
-1 1:7.2670763e-05 2:2.1375305e-05 
-1 1:0.00010060874 2:2.7321521e-05 
-1 1:6.2074583e-05 2:3.2746937e-05 
-1 1:6.7187414e-05 2:3.2999849e-05 
-1 1:0.00018443241 2:4.8696808e-05 
-1 1:6.0151394e-05 2:1.5478972e-05 
-1 1:8.6316637e-06 2:2.8457656e-06 
-1 1:7.1285756e-05 2:1.7804951e-05 
-1 1:0.00013414247 2:3.5363864e-05 
-1 1:0.00013523533 2:3.7220519e-05 
-1 1:0.00013083425 2:3.4083913e-05 
-1 1:5.0957011e-05 2:1.3126848e-05 
-1 1:4.7473814e-06 2:1.8231478e-06 
-1 1:9.2078743e-05 2:2.2884696e-05 
-1 1:0.000237011 2:0.00021440126 
-1 1:8.7109114e-05 2:5.3166798e-05 
-1 1:5.2940138e-05 2:2.3598442e-05 
-1 1:1.4228163e-05 2:4.3949268e-06 
-1 1:0.00021646497 2:5.7342711e-05 
-1 1:7.0390058e-05 2:1.7555092e-05 
-1 1:0.00012348684 2:3.3357965e-05 
-1 1:8.3650747e-05 2:2.3330088e-05 
-1 1:2.5280022e-05 2:1.2480516e-05 
-1 1:1.5428726e-05 2:1.327452e-05 
-1 1:5.4709854e-05 2:2.1261825e-05 
-1 1:5.5103872e-05 2:2.1347038e-05 
-1 1:4.0888267e-05 2:1.7499697e-05 
-1 1:2.7858682e-05 2:1.3501455e-05 
-1 1:1.4035086e-05 2:1.0693116e-05 
-1 1:0.00018806115 2:0.00036942296 
-1 1:4.4251694e-05 2:3.5009812e-05 
-1 1:5.8291033e-05 2:3.3435412e-05 
-1 1:1.6763843e-05 2:4.6813756e-06 
-1 1:3.4426762e-05 2:8.6301774e-06 
-1 1:2.2923416e-05 2:5.8206298e-06 
-1 1:1.335447e-05 2:3.4922701e-06 
-1 1:1.5325835e-05 2:3.8426108e-06 
-1 1:3.2918784e-05 2:7.4473827e-06 
-1 1:9.4772167e-05 2:9.3019826e-05 
-1 1:2.0398338e-05 2:6.8457611e-06 
-1 1:7.364107e-05 2:0.0001254454 
-1 1:0.00019775606 2:0.0016118134 
-1 1:3.7842551e-05 2:5.4628629e-05 
-1 1:1.9871057e-05 2:5.3561026e-06 
-1 1:6.2582243e-05 2:3.357707e-05 
-1 1:6.241254e-05 2:4.7508215e-05 
-1 1:8.3765344e-05 2:0.00010153072 
-1 1:0.00073519724 2:0.0018580788 
-1 1:2.3072616e-05 2:1.1351148e-05 
-1 1:1.6522714e-05 2:4.320404e-06 
-1 1:3.3774947e-05 2:2.34109e-05 
-1 1:4.4687692e-05 2:3.6113329e-05 
-1 1:0.00052447593 2:0.001300039 
-1 1:8.5456583e-05 2:6.1167205e-05 
-1 1:5.1624533e-05 2:4.1632341e-05 
-1 1:5.5801347e-05 2:3.2586934e-05 
-1 1:2.4022434e-05 2:2.0226802e-05 
-1 1:2.7020837e-05 2:1.5051124e-05 
-1 1:9.1941281e-06 2:2.4626518e-06 
-1 1:1.6953901e-05 2:4.4456939e-06 
-1 1:2.5230458e-05 2:6.7869812e-06 
-1 1:7.4165601e-05 2:5.9447234e-05 
-1 1:6.4317602e-05 2:4.610248e-05 
-1 1:6.5063483e-05 2:5.3278998e-05 
-1 1:7.674138e-07 2:2.4777756e-07 
-1 1:1.4053451e-05 2:3.7529705e-06 
-1 1:3.3275609e-05 2:8.6263021e-06 
-1 1:7.4507745e-07 2:1.8434632e-07 
-1 1:4.2997319e-05 2:7.2574612e-05 
-1 1:2.100604e-05 2:1.6612763e-05 
-1 1:1.7228741e-05 2:2.9197534e-05 
-1 1:2.3573264e-05 2:1.6391097e-05 
-1 1:3.2391326e-05 2:1.6440299e-05 
-1 1:0.00010612188 2:0.00031155996 
-1 1:0.0001155012 2:0.00031396143 
-1 1:0.00012363906 2:0.00031632783 
-1 1:0.00012547498 2:0.00031750263 
-1 1:0.00013974958 2:0.00036103509 
-1 1:0.00013314479 2:0.00035870739 
-1 1:0.00013986894 2:0.00037662584 
-1 1:1.4932993e-05 2:1.2942173e-05 
-1 1:2.7725146e-05 2:1.6272431e-05 
-1 1:5.6775086e-05 2:0.00017553793 
-1 1:2.9074113e-05 2:3.338457e-05 
-1 1:6.4424375e-05 2:0.00017811308 
-1 1:0.00018179688 2:0.00049668123 
-1 1:0.00011527559 2:0.00030387628 
-1 1:2.185248e-05 2:7.3736713e-06 
-1 1:1.870556e-05 2:4.7785414e-06 
-1 1:2.1427851e-05 2:7.8309031e-06 
-1 1:1.6843495e-05 2:4.6600945e-06 
-1 1:1.5016757e-05 2:3.9120067e-06 
-1 1:1.306187e-05 2:1.066119e-05 
-1 1:1.6151345e-05 2:4.3206212e-06 
-1 1:3.3391662e-05 2:8.606509e-06 
-1 1:2.2684352e-05 2:5.8518364e-06 
-1 1:2.2052268e-05 2:1.7543439e-05 
-1 1:8.1678284e-06 2:2.0947149e-06 
-1 1:1.6992953e-05 2:4.4507042e-06 
-1 1:8.2464723e-06 2:2.1585341e-06 
-1 1:3.2001692e-05 2:8.2383802e-06 
-1 1:1.1673983e-05 2:4.5218057e-06 
-1 1:1.675792e-05 2:4.4400746e-06 
-1 1:2.083695e-05 2:5.5447129e-06 
-1 1:0.00012251114 2:0.00029325268 
-1 1:0.00010677858 2:0.00029422377 
-1 1:1.3870729e-05 2:1.4694672e-05 
-1 1:4.011536e-05 2:1.6547801e-05 
-1 1:8.7040715e-06 2:2.538349e-06 
-1 1:9.6308037e-06 2:2.6899737e-06 
-1 1:1.8478303e-05 2:4.9180309e-06 
-1 1:1.0914701e-05 2:9.7335408e-06 
-1 1:6.0264856e-05 2:3.8926611e-05 
-1 1:0.00013557273 2:0.00029684355 
-1 1:0.00013214919 2:0.00029569894 
-1 1:5.1403346e-05 2:2.9034005e-05 
-1 1:6.3213969e-05 2:4.1986585e-05 
-1 1:5.1285136e-05 2:3.5825105e-05 
-1 1:0.00014836001 2:0.0003290033 
-1 1:6.7645393e-05 2:4.7035412e-05 
-1 1:0.00010731006 2:0.00029079992 
-1 1:0.00010344238 2:0.00030363046 
-1 1:1.6885012e-05 2:1.0492701e-05 
-1 1:0.00012206694 2:0.00029840849 
-1 1:1.9820978e-05 2:1.0559313e-05 
-1 1:2.8576898e-05 2:2.1458856e-05 
-1 1:3.3127172e-05 2:2.375065e-05 
-1 1:0.00014088258 2:0.00035349605 
-1 1:0.00015081554 2:0.00035534432 
-1 1:1.6792093e-05 2:4.7838604e-06 
-1 1:3.2530922e-05 2:5.7203134e-05 
-1 1:7.6016419e-06 2:4.1358622e-06 
-1 1:6.3929485e-06 2:2.4581849e-06 
-1 1:1.1038538e-05 2:3.8301104e-06 
-1 1:2.3921361e-05 2:7.3575855e-06 
-1 1:2.8904783e-05 2:8.5699359e-06 
-1 1:3.0007363e-05 2:8.5087342e-06 
-1 1:1.9553597e-05 2:5.7515173e-06 
-1 1:1.3681682e-05 2:3.8609635e-06 
-1 1:9.731702e-06 2:2.6121353e-06 
-1 1:1.0599912e-05 2:2.751958e-06 
-1 1:1.0746843e-05 2:2.766923e-06 
-1 1:1.7667025e-05 2:1.005234e-05 
-1 1:4.0078903e-05 2:3.2295734e-05 
-1 1:3.5709577e-05 2:2.530255e-05 
-1 1:3.6806325e-05 2:1.8988987e-05 
-1 1:2.3176079e-05 2:1.1908449e-05 
-1 1:2.6932747e-05 2:1.4051016e-05 
-1 1:2.318428e-05 2:6.014575e-06 
-1 1:1.6513637e-05 2:4.2325643e-06 
-1 1:6.3646608e-06 2:1.6723166e-06 
-1 1:2.9121861e-05 2:2.3456892e-05 
-1 1:5.3950084e-05 2:6.6905764e-05 
-1 1:5.977276e-05 2:6.9310468e-05 
-1 1:0.00016608609 2:0.0001160873 
-1 1:6.6024549e-05 2:1.7055739e-05 
-1 1:4.9778267e-05 2:1.2979806e-05 
-1 1:3.2460997e-05 2:9.1198151e-06 
-1 1:3.5496631e-05 2:9.7460332e-06 
-1 1:7.3993343e-05 2:1.9930281e-05 
-1 1:0.00012078457 2:3.0926168e-05 
-1 1:0.00023118349 2:6.5722778e-05 
-1 1:0.00020284467 2:9.6316893e-05 
-1 1:0.00017454379 2:8.8671818e-05 
-1 1:9.3066902e-05 2:3.7954869e-05 
-1 1:7.5654372e-05 2:2.0843611e-05 
-1 1:0.00010723486 2:3.0363845e-05 
-1 1:0.00037774054 2:0.00017183725 
-1 1:0.00037758014 2:0.00017962406 
-1 1:0.0003774194 2:0.00018154208 
-1 1:0.00014944854 2:4.5040439e-05 
-1 1:0.00012995798 2:3.3388655e-05 
-1 1:0.00015013237 2:3.9030714e-05 
-1 1:0.0001489547 2:7.7771394e-05 
-1 1:0.00012140269 2:7.5400729e-05 
-1 1:0.00011534782 2:7.2308857e-05 
-1 1:9.5976898e-05 2:6.7624465e-05 
-1 1:8.6848457e-05 2:6.4322599e-05 
-1 1:8.8610956e-05 2:0.00029839521 
-1 1:0.0002088051 2:6.8776259e-05 
-1 1:0.00016584464 2:5.5862971e-05 
-1 1:0.00013593007 2:8.0938221e-05 
-1 1:0.00021167976 2:4.3281122e-05 
-1 1:0.00019405919 2:5.2455145e-05 
-1 1:0.00021521013 2:5.9868098e-05 
-1 1:0.0002280634 2:6.4400159e-05 
-1 1:0.00015015296 2:4.1743616e-05 
-1 1:0.00023087178 2:7.8387201e-05 
-1 1:0.0002009536 2:6.9802673e-05 
-1 1:0.00012980063 2:4.9457069e-05 
-1 1:9.5164589e-05 2:3.9065784e-05 
-1 1:8.2761676e-05 2:4.7463302e-05 
-1 1:0.00019637362 2:9.1767132e-05 
-1 1:0.00019309755 2:0.00014289028 
-1 1:0.0001785667 2:0.00014662872 
-1 1:0.0001757398 2:7.0965501e-05 
-1 1:0.00025831094 2:0.00032330495 
-1 1:0.00025361416 2:0.00033223542 
-1 1:0.00026641182 2:0.00032058411 
-1 1:1.9147542e-05 2:4.0905391e-06 
-1 1:6.0361467e-05 2:2.4754384e-05 
-1 1:9.7788235e-05 2:2.5037548e-05 
-1 1:0.00012686871 2:3.3462788e-05 
-1 1:0.00022847224 2:6.1343928e-05 
-1 1:0.00019368537 2:5.5979179e-05 
-1 1:0.00022011756 2:5.3054094e-05 
-1 1:0.00020036578 2:4.8387361e-05 
-1 1:0.00012087595 2:0.00016841539 
-1 1:3.8189317e-05 2:0.00016710854 
-1 1:0.00017278328 2:0.00016833575 
-1 1:0.00016519764 2:4.7793607e-05 
-1 1:0.00017152984 2:9.641994e-05 
-1 1:0.00014670683 2:4.766298e-05 
-1 1:0.0001647635 2:4.1778337e-05 
-1 1:0.00011593041 2:3.3910626e-05 
-1 1:0.00017215813 2:4.5252741e-05 
-1 1:0.00020322077 2:5.1458996e-05 
-1 1:0.0002061655 2:8.2194989e-05 
-1 1:0.00014102586 2:4.3043122e-05 
-1 1:0.00016387098 2:4.5816217e-05 
-1 1:0.00021193694 2:5.2071758e-05 
-1 1:0.00023636288 2:0.00034554954 
-1 1:8.3092027e-05 2:4.8307355e-05 
-1 1:0.0001984222 2:0.00035353107 
-1 1:0.00019793593 2:0.00035098821 
-1 1:4.3373818e-05 2:1.9732063e-05 
-1 1:0.00011752255 2:2.576205e-05 
-1 1:0.0001225703 2:4.3991009e-05 
-1 1:0.00020831873 2:6.3709182e-05 
-1 1:0.00013157961 2:2.9678385e-05 
-1 1:0.00014263722 2:3.4374097e-05 
-1 1:0.00017437821 2:7.4851971e-05 
-1 1:0.00013597645 2:3.9236566e-05 
-1 1:0.00014943656 2:4.3022922e-05 
-1 1:0.00015186941 2:4.1997746e-05 
-1 1:0.00016976195 2:4.571503e-05 
-1 1:0.00018360891 2:4.9111977e-05 
-1 1:0.00018256292 2:4.8011597e-05 
-1 1:0.00017608706 2:4.4839293e-05 
-1 1:0.00017210973 2:4.8222552e-05 
-1 1:0.00012593511 2:3.2776955e-05 
-1 1:0.0021132996 2:0.0025200491 
-1 1:0.0021641369 2:0.0025436684 
-1 1:0.0021622567 2:0.0025432886 
-1 1:0.0021618336 2:0.0025431786 
-1 1:0.002141707 2:0.0025220973 
-1 1:0.0020974188 2:0.0024359333 
-1 1:1.2548267e-10 2:7.5009535e-12 
-1 1:1.2546688e-10 2:7.508254e-12 
-1 1:3.7517678e-10 2:4.2195153e-10 
-1 1:0.0034409025 2:0.0065773858 
-1 1:3.4066889e-05 2:3.1863167e-05 
-1 1:2.148493e-05 2:2.0419901e-05 
-1 1:2.1342203e-05 2:2.0569935e-05 
-1 1:2.88086e-05 2:2.770554e-05 
-1 1:8.7944164e-07 2:4.1823655e-07 
-1 1:2.2298123e-05 2:1.4810166e-05 
-1 1:8.1469614e-05 2:3.8136592e-05 
-1 1:0.00010772893 2:6.7918505e-05 
-1 1:0.00010977025 2:6.8661453e-05 
-1 1:0.0001600645 2:0.00010981856 
-1 1:0.00029109189 2:0.00024390816 
-1 1:0.0041379619 2:0.0097030078 
-1 1:0.0033978789 2:0.0090577897 
-1 1:0.00012176732 2:0.00010963841 
-1 1:3.029264e-05 2:2.8245029e-05 
-1 1:6.5940444e-07 2:6.3010386e-07 
-1 1:7.7782131e-07 2:7.5063505e-07 
-1 1:1.0622028e-06 2:8.1875165e-07 
-1 1:1.3776377e-06 2:8.9077851e-07 
-1 1:9.0827444e-07 2:7.6643218e-07 
-1 1:1.1618097e-06 2:7.0630213e-07 
-1 1:1.1999748e-06 2:8.4820767e-07 
-1 1:1.0357449e-06 2:7.6824135e-07 
-1 1:8.6692606e-07 2:7.013413e-07 
-1 1:9.7319623e-07 2:7.3308517e-07 
-1 1:8.6662126e-07 2:6.1296469e-07 
-1 1:7.8108948e-07 2:6.3135697e-07 
-1 1:1.127097e-06 2:7.0308206e-07 
-1 1:1.1453181e-06 2:7.3231066e-07 
-1 1:1.3698937e-06 2:7.6474344e-07 
-1 1:1.2072202e-06 2:8.2479193e-07 
-1 1:1.0092451e-06 2:7.2287065e-07 
-1 1:9.0095598e-07 2:6.5092226e-07 
-1 1:1.1763205e-06 2:6.8861868e-07 
-1 1:1.1579663e-06 2:6.9150736e-07 
-1 1:1.1007701e-06 2:6.6138416e-07 
-1 1:1.1021864e-06 2:6.0800425e-07 
-1 1:1.1974e-06 2:6.0917688e-07 
-1 1:1.3076937e-06 2:6.0792641e-07 
-1 1:1.2413744e-06 2:5.1461939e-07 
-1 1:2.0809361e-05 2:2.0424052e-05 
-1 1:3.5826868e-05 2:3.5925985e-05 
-1 1:4.8219004e-05 2:4.8523474e-05 
-1 1:2.7329913e-05 2:2.5532409e-05 
-1 1:2.2369072e-05 2:2.1269009e-05 
-1 1:2.4078984e-05 2:2.3500532e-05 
-1 1:1.9741112e-05 2:1.5494423e-05 
-1 1:3.5046599e-07 2:2.6896729e-07 
-1 1:5.3178564e-07 2:3.2038418e-07 
-1 1:8.890127e-07 2:3.8030666e-07 
-1 1:6.9364816e-07 2:3.5404129e-07 
-1 1:3.4334562e-07 2:2.837278e-07 
-1 1:8.3937307e-07 2:4.1628937e-07 
-1 1:9.6121602e-07 2:4.411756e-07 
-1 1:6.7073429e-07 2:3.7254356e-07 
-1 1:4.8221912e-07 2:3.8954271e-07 
-1 1:6.4613379e-07 2:3.775534e-07 
-1 1:7.5719262e-07 2:4.5166963e-07 
-1 1:4.1334326e-07 2:3.1411902e-07 
-1 1:7.3572894e-07 2:3.9667312e-07 
-1 1:8.3220507e-07 2:3.9165242e-07 
-1 1:6.8965055e-07 2:3.8620927e-07 
-1 1:1.0699448e-06 2:4.195559e-07 
-1 1:8.0503377e-07 2:3.8580869e-07 
-1 1:5.2570963e-07 2:2.8687653e-07 
-1 1:5.5893716e-07 2:2.2183818e-07 
-1 1:1.5425893e-06 2:4.3335843e-07 
-1 1:1.9195384e-06 2:5.1163657e-07 
-1 1:1.2408774e-06 2:3.1710019e-07 
-1 1:7.1827227e-07 2:4.208358e-07 
-1 1:8.6413907e-07 2:3.0256607e-07 
-1 1:1.1230041e-06 2:4.6869112e-07 
-1 1:9.7007302e-07 2:4.6519228e-07 
-1 1:9.1678052e-07 2:4.7138566e-07 
-1 1:4.5251559e-07 2:3.2344668e-07 
-1 1:9.2305705e-07 2:5.1725194e-07 
-1 1:7.0736589e-07 2:4.5528319e-07 
-1 1:4.4841419e-07 2:3.8483763e-07 
-1 1:7.378379e-07 2:4.8518259e-07 
-1 1:7.3023773e-07 2:4.9790703e-07 
-1 1:3.3830548e-07 2:3.6079446e-07 
-1 1:4.2153758e-07 2:3.5607633e-07 
-1 1:9.7749603e-07 2:5.3563484e-07 
-1 1:5.4504687e-07 2:4.2623189e-07 
-1 1:6.3847157e-07 2:4.9293319e-07 
-1 1:7.6243814e-07 2:4.863994e-07 
-1 1:8.5747336e-07 2:6.1619685e-07 
-1 1:6.3009068e-07 2:4.8522464e-07 
-1 1:9.2682953e-07 2:7.5582221e-07 
-1 1:6.1095432e-07 2:4.9704546e-07 
-1 1:4.642061e-07 2:4.3229575e-07 
-1 1:4.942311e-07 2:4.1974065e-07 
-1 1:7.0451791e-07 2:4.3965069e-07 
-1 1:5.5295492e-07 2:4.9385048e-07 
-1 1:6.6108241e-07 2:4.215632e-07 
-1 1:1.0507412e-06 2:4.7295394e-07 
-1 1:1.0302873e-06 2:4.4092352e-07 
-1 1:6.39394e-07 2:4.0907911e-07 
-1 1:8.776063e-07 2:7.3766622e-07 
-1 1:8.8437855e-07 2:5.7179548e-07 
-1 1:8.8815464e-07 2:5.2059146e-07 
-1 1:8.1937152e-07 2:4.7594252e-07 
-1 1:9.2313524e-07 2:4.7833436e-07 
-1 1:5.6774633e-07 2:4.2984825e-07 
-1 1:3.7861648e-07 2:3.8398454e-07 
-1 1:0.0027333179 2:0.004002252 
-1 1:3.6280905e-05 2:8.279911e-06 
-1 1:9.9127427e-07 2:1.1914582e-07 
-1 1:5.5175706e-05 2:1.5254037e-05 
-1 1:0.00016170981 2:4.2239045e-05 
-1 1:0.00015751915 2:4.2469623e-05 
-1 1:9.8393182e-05 2:5.8949601e-05 
-1 1:0.00021772094 2:5.7195372e-05 
-1 1:0.00018424517 2:4.9646073e-05 
-1 1:0.00022061458 2:6.1585655e-05 
-1 1:4.733423e-05 2:8.6603319e-06 
-1 1:0.00016522631 2:4.1126054e-05 
-1 1:0.00011764523 2:4.9382851e-05 
-1 1:0.00015994964 2:4.3133949e-05 
-1 1:0.0002069428 2:7.1082805e-05 
-1 1:0.00018270801 2:0.00035290164 
-1 1:0.00013776256 2:0.00033839809 
-1 1:5.7138886e-05 2:2.4887432e-05 
-1 1:0.00013455961 2:3.2436607e-05 
-1 1:0.00021621223 2:8.1440984e-05 
-1 1:7.3810924e-05 2:5.9139907e-06 
-1 1:0.00023805391 2:5.0925225e-05 
-1 1:0.00077624084 2:0.00049687646 
-1 1:0.00014875312 2:4.0520711e-05 
-1 1:8.4546296e-05 2:2.2311492e-05 
-1 1:0.0002026347 2:4.8726995e-05 
-1 1:0.00011621914 2:2.7353939e-05 
-1 1:0.00017427564 2:5.5056877e-05 
-1 1:6.454291e-05 2:1.3882475e-05 
-1 1:9.1951778e-05 2:1.7919707e-05 
-1 1:0.00033261464 2:0.00053382061 
-1 1:3.2409153e-05 2:8.2156127e-06 
-1 1:0.00081529066 2:0.00050998211 
-1 1:0.0031090284 2:0.0029897729 
-1 1:0.0021973245 2:0.0080506198 
-1 1:0.0025470314 2:0.0059153976 
-1 1:0.0025383817 2:0.0053849466 
-1 1:0.0018074245 2:0.00258034 
-1 1:0.0026870081 2:0.002326059 
-1 1:0.00040140012 2:0.00020145765 
-1 1:0.00023782539 2:0.00030844986 
-1 1:0.00023216412 2:6.6817426e-05 
-1 1:0.00060963909 2:0.00043791757 
-1 1:0.0021766479 2:0.0024592199 
-1 1:0.0011708091 2:0.0015783294 
-1 1:0.0010406088 2:0.00078825802 
-1 1:0.00088254313 2:0.00076100286 
-1 1:0.0008237461 2:0.0005738467 
-1 1:0.0001121534 2:4.5425008e-05 
-1 1:0.00039631231 2:0.00013376425 
-1 1:0.00078848647 2:0.0005565774 
-1 1:0.0001724017 2:4.34841e-05 
-1 1:2.2252235e-05 2:1.142298e-05 
-1 1:2.8117754e-05 2:1.5268384e-05 
-1 1:3.5181318e-05 2:4.526189e-05 
-1 1:5.6852468e-05 2:5.1360586e-05 
-1 1:3.0459086e-05 2:1.5517329e-05 
-1 1:2.6453338e-05 2:1.4362155e-05 
-1 1:4.1591712e-06 2:1.123666e-06 
-1 1:1.8684324e-05 2:5.021496e-06 
-1 1:2.0925852e-06 2:6.3107744e-07 
-1 1:1.2775453e-05 2:3.4015529e-06 
-1 1:1.494877e-05 2:3.9810613e-06 
-1 1:7.200208e-06 2:1.9247512e-06 
-1 1:3.8957438e-05 2:5.5384103e-05 
-1 1:4.6058631e-05 2:6.2669547e-05 
-1 1:4.678098e-05 2:5.641342e-05 
-1 1:4.6337883e-05 2:5.7698209e-05 
-1 1:3.7478585e-05 2:5.2107342e-05 
-1 1:2.9551067e-05 2:1.628887e-05 
-1 1:2.4397109e-05 2:1.8907714e-05 
-1 1:5.8463165e-05 2:3.9651003e-05 
-1 1:5.8739961e-05 2:3.3836866e-05 
-1 1:3.9788879e-05 2:3.0053592e-05 
-1 1:1.274391e-05 2:4.3063986e-06 
-1 1:2.3045106e-05 2:5.963501e-06 
-1 1:1.5996083e-05 2:6.636425e-06 
-1 1:1.7760305e-05 2:5.3657255e-06 
-1 1:1.9658158e-05 2:1.1833114e-05 
-1 1:7.7554793e-06 2:2.540655e-06 
-1 1:1.8518864e-05 2:5.1466028e-06 
-1 1:1.1235394e-05 2:2.7990632e-06 
-1 1:5.1184358e-05 2:0.00014598847 
-1 1:3.1584938e-05 2:1.789575e-05 
-1 1:7.6048385e-05 2:0.00016410278 
-1 1:6.1502987e-05 2:4.4547486e-05 
-1 1:5.7429164e-05 2:3.9238174e-05 
-1 1:4.2245399e-05 2:3.0693176e-05 
-1 1:5.4534661e-05 2:2.8578858e-05 
-1 1:4.393969e-05 2:2.1270383e-05 
-1 1:4.6486164e-05 2:1.4847312e-05 
-1 1:4.6036772e-05 2:1.3832129e-05 
-1 1:1.6429843e-05 2:3.7619362e-06 
-1 1:6.856315e-06 2:1.4125606e-06 
-1 1:4.4694859e-05 2:1.5002074e-05 
-1 1:2.0874485e-05 2:9.7440504e-06 
-1 1:1.368159e-05 2:5.1218138e-06 
-1 1:1.698382e-05 2:8.8687438e-06 
-1 1:2.0356361e-05 2:9.5516915e-06 
-1 1:1.5528923e-05 2:7.9285332e-06 
-1 1:0.00013350172 2:0.00034499897 
-1 1:0.00013572238 2:0.00034659262 
-1 1:1.460228e-05 2:7.4240587e-06 
-1 1:7.5773345e-06 2:2.9340584e-06 
-1 1:5.7902119e-06 2:1.6422319e-06 
-1 1:7.9100626e-06 2:2.6238408e-06 
-1 1:1.3771238e-05 2:6.254074e-06 
-1 1:9.2851754e-06 2:2.552471e-06 
-1 1:8.1393615e-06 2:2.4850369e-06 
-1 1:6.7637652e-06 2:2.1787929e-06 
-1 1:3.203921e-05 2:2.9712308e-05 
-1 1:4.014256e-05 2:9.9636568e-05 
-1 1:4.3456433e-05 2:0.00010034955 
-1 1:4.4429295e-05 2:0.00010059933 
-1 1:3.5318628e-05 2:2.1091762e-05 
-1 1:2.7555832e-05 2:2.0503189e-05 
-1 1:7.984708e-06 2:2.4262076e-06 
-1 1:1.0294207e-05 2:5.9961274e-06 
-1 1:6.972705e-06 2:1.8903017e-06 
-1 1:7.0481625e-06 2:1.8578672e-06 
-1 1:6.5985665e-06 2:1.7470518e-06 
-1 1:8.7875733e-06 2:2.596904e-06 
-1 1:1.2410348e-05 2:3.3737072e-06 
-1 1:1.6672224e-05 2:4.7608306e-06 
-1 1:1.7939955e-05 2:8.7717436e-06 
-1 1:3.2119748e-06 2:8.2038955e-07 
-1 1:4.8914595e-06 2:1.1861354e-06 
-1 1:1.096791e-05 2:2.8076062e-06 
-1 1:9.1140759e-06 2:3.0470902e-06 
-1 1:1.0397575e-05 2:3.1843564e-06 
-1 1:8.7431972e-06 2:2.6010211e-06 
-1 1:6.0337002e-06 2:1.7918127e-06 
-1 1:7.8217929e-06 2:2.1929566e-06 
-1 1:1.1228632e-05 2:2.9629768e-06 
-1 1:8.5834755e-06 2:2.334713e-06 
-1 1:3.9277294e-06 2:1.1009255e-06 
